{"learner":{"attributes":{"best_iteration":"32","best_score":"0.37773359840954274"},"feature_names":["HS","AS","HST","AST","HF","AF","HC","AC","HY","AY","HR","AR","Home_matches_played","Home_points_last_5","Home_goals_scored_last_5","Home_goals_conceded_last_5","Home_wins_last_5","Home_avg_goals_scored","Home_avg_goals_conceded","Home_win_rate","Home_points_per_game","Away_matches_played","Away_points_last_5","Away_goals_scored_last_5","Away_goals_conceded_last_5","Away_wins_last_5","Away_avg_goals_scored","Away_avg_goals_conceded","Away_win_rate","Away_points_per_game","H2H_matches","H2H_home_wins","H2H_draws","H2H_away_wins","H2H_home_goals","H2H_away_goals","Form_Difference","GoalScoring_Difference","Defense_Difference","WinRate_Difference","PPG_Difference","Month","DayOfWeek","MatchNumber"],"feature_types":["float","float","float","float","float","float","float","float","float","float","float","float","int","int","float","float","int","float","float","float","float","int","int","float","float","int","float","float","float","float","int","int","int","int","float","float","int","float","float","float","float","int","int","int"],"gradient_booster":{"model":{"cats":{"enc":[],"feature_segments":[],"sorted_idx":[]},"gbtree_model_param":{"num_parallel_tree":"1","num_trees":"159"},"iteration_indptr":[0,3,6,9,12,15,18,21,24,27,30,33,36,39,42,45,48,51,54,57,60,63,66,69,72,75,78,81,84,87,90,93,96,99,102,105,108,111,114,117,120,123,126,129,132,135,138,141,144,147,150,153,156,159],"tree_info":[0,1,2,0,1,2,0,1,2,0,1,2,0,1,2,0,1,2,0,1,2,0,1,2,0,1,2,0,1,2,0,1,2,0,1,2,0,1,2,0,1,2,0,1,2,0,1,2,0,1,2,0,1,2,0,1,2,0,1,2,0,1,2,0,1,2,0,1,2,0,1,2,0,1,2,0,1,2,0,1,2,0,1,2,0,1,2,0,1,2,0,1,2,0,1,2,0,1,2,0,1,2,0,1,2,0,1,2,0,1,2,0,1,2,0,1,2,0,1,2,0,1,2,0,1,2,0,1,2,0,1,2,0,1,2,0,1,2,0,1,2,0,1,2,0,1,2,0,1,2,0,1,2,0,1,2,0,1,2],"trees":[{"base_weights":[-1.9202346E-2,-3.0415985E-1,4.8204812E-1,2.3019327E-1,-4.2284706E-1,1.0165156E0,2.549711E-1,-2.2714196E-2,1.8235615E-2,-1.077793E-2,-2.6809333E-2,5.534477E-2,1.2345153E-2,2.354215E-2,9.0941583E-4],"categories":[],"categories_nodes":[],"categories_segments":[],"categories_sizes":[],"default_left":[0,0,0,0,0,0,0,0,0,0,0,0,0,0,0],"id":0,"left_children":[1,3,5,7,9,11,13,-1,-1,-1,-1,-1,-1,-1,-1],"loss_changes":[1.3334596E2,3.835588E1,3.8922752E1,1.0438057E1,1.0441818E1,4.666939E0,1.18676E1,0E0,0E0,0E0,0E0,0E0,0E0,0E0,0E0],"parents":[2147483647,0,0,1,1,2,2,3,3,4,4,5,5,6,6],"right_children":[2,4,6,8,10,12,14,-1,-1,-1,-1,-1,-1,-1,-1],"split_conditions":[5E0,3E0,3E0,2E0,0E0,1.5504587E0,-5.2910052E-2,-2.2714196E-2,1.8235615E-2,-1.077793E-2,-2.6809333E-2,5.534477E-2,1.2345153E-2,2.354215E-2,9.0941583E-4],"split_indices":[3,2,2,3,39,27,39,0,0,0,0,0,0,0,0],"split_type":[0,0,0,0,0,0,0,0,0,0,0,0,0,0,0],"sum_hessian":[9.287318E2,5.941412E2,3.3459064E2,1.0593899E2,4.8820218E2,9.534509E1,2.3924554E2,1.5008023E1,9.093096E1,1.7877205E2,3.094301E2,8.298554E1,1.2359549E1,1.2138842E2,1.17857124E2],"tree_param":{"num_deleted":"0","num_feature":"44","num_nodes":"15","size_leaf_vector":"1"}},{"base_weights":[-1.6219303E-1,-1.2319225E-1,-4.2491668E-1,-1.4588867E-1,3.4671277E-1,-0E0,-4.6742E-1,-9.570061E-3,1.0512706E-3,2.3797957E-2,-5.72528E-4,-1.4025561E-2,-2.875541E-2],"categories":[],"categories_nodes":[],"categories_segments":[],"categories_sizes":[],"default_left":[0,0,0,0,0,0,0,0,0,0,0,0,0],"id":1,"left_children":[1,3,5,7,9,-1,11,-1,-1,-1,-1,-1,-1],"loss_changes":[8.431097E0,8.3117285E0,2.1766949E0,5.8948383E0,2.1000366E0,0E0,7.025528E-1,0E0,0E0,0E0,0E0,0E0,0E0],"parents":[2147483647,0,0,1,1,2,2,3,3,4,4,6,6],"right_children":[2,4,6,8,10,-1,12,-1,-1,-1,-1,-1,-1],"split_conditions":[6.984987E-1,1.2E1,3E0,3E0,1.5E0,-0E0,7E0,-9.570061E-3,1.0512706E-3,2.3797957E-2,-5.72528E-4,-1.4025561E-2,-2.875541E-2],"split_indices":[40,6,2,8,18,0,2,0,0,0,0,0,0],"split_type":[0,0,0,0,0,0,0,0,0,0,0,0,0],"sum_hessian":[8.886519E2,7.809365E2,1.07715385E2,7.4895856E2,3.1978004E1,9.256791E0,9.8458595E1,5.928554E2,1.5610315E2,2.482503E1,7.1529746E0,4.333861E1,5.5119984E1],"tree_param":{"num_deleted":"0","num_feature":"44","num_nodes":"13","size_leaf_vector":"1"}},{"base_weights":[1.5509209E-1,-2.0904714E-1,5.414091E-1,1.714312E-1,-3.3435026E-1,8.4689164E-1,1.5337634E-1,-7.1625593E-3,1.8425938E-2,-2.7540863E-2,-8.391381E-3,4.613444E-2,-0E0,3.3149224E-2,-2.5076247E-4],"categories":[],"categories_nodes":[],"categories_segments":[],"categories_sizes":[],"default_left":[0,0,0,0,0,0,0,0,0,0,0,0,0,0,0],"id":2,"left_children":[1,3,5,7,9,11,13,-1,-1,-1,-1,-1,-1,-1,-1],"loss_changes":[1.3799342E2,2.4331814E1,5.5013763E1,8.117844E0,1.2760799E1,1.7562943E1,1.7998144E1,0E0,0E0,0E0,0E0,0E0,0E0,0E0,0E0],"parents":[2147483647,0,0,1,1,2,2,3,3,4,4,5,5,6,6],"right_children":[2,4,6,8,10,12,14,-1,-1,-1,-1,-1,-1,-1,-1],"split_conditions":[5E0,3E0,4E0,3E0,3E0,1.2E1,1.0833334E0,-7.1625593E-3,1.8425938E-2,-2.7540863E-2,-8.391381E-3,4.613444E-2,-0E0,3.3149224E-2,-2.5076247E-4],"split_indices":[2,3,3,2,2,6,18,0,0,0,0,0,0,0,0],"split_type":[0,0,0,0,0,0,0,0,0,0,0,0,0,0,0],"sum_hessian":[9.73174E2,5.0034296E2,4.728311E2,1.2170504E2,3.786379E2,2.6112958E2,2.1170149E2,4.5231377E1,7.647366E1,1.5900926E2,2.1962863E2,2.4014597E2,2.0983627E1,4.94281E1,1.6227339E2],"tree_param":{"num_deleted":"0","num_feature":"44","num_nodes":"15","size_leaf_vector":"1"}},{"base_weights":[-1.1116169E-2,-3.863674E-1,3.1840497E-1,5.926295E-2,-4.8132783E-1,9.095396E-1,1.0717348E-1,1.2644269E-2,-1.2105527E-2,-1.3843945E-2,-2.8732676E-2,4.9844902E-2,8.727197E-3,-8.1378577E-4,2.5128964E-2],"categories":[],"categories_nodes":[],"categories_segments":[],"categories_sizes":[],"default_left":[0,0,0,0,0,0,0,0,0,0,0,0,0,0,0],"id":3,"left_children":[1,3,5,7,9,11,13,-1,-1,-1,-1,-1,-1,-1,-1],"loss_changes":[1.1609445E2,1.9131355E1,6.090416E1,4.7534895E0,5.6348495E0,6.622772E0,1.8655416E1,0E0,0E0,0E0,0E0,0E0,0E0,0E0,0E0],"parents":[2147483647,0,0,1,1,2,2,3,3,4,4,5,5,6,6],"right_children":[2,4,6,8,10,12,14,-1,-1,-1,-1,-1,-1,-1,-1],"split_conditions":[4E0,3E0,3E0,1.4204545E0,5E0,1.5585586E0,7E0,1.2644269E-2,-1.2105527E-2,-1.3843945E-2,-2.8732676E-2,4.9844902E-2,8.727197E-3,-8.1378577E-4,2.5128964E-2],"split_indices":[3,2,2,27,2,27,3,0,0,0,0,0,0,0,0],"split_type":[0,0,0,0,0,0,0,0,0,0,0,0,0,0,0],"sum_hessian":[9.32337E2,4.3709744E2,4.9523953E2,7.5129005E1,3.619684E2,1.26519875E2,3.6871964E2,4.805566E1,2.7073347E1,1.2053265E2,2.4143578E2,1.1090824E2,1.5611628E1,2.8125638E2,8.746327E1],"tree_param":{"num_deleted":"0","num_feature":"44","num_nodes":"15","size_leaf_vector":"1"}},{"base_weights":[-1.5143262E-1,-1.1207767E-1,-4.1662702E-1,-1.3274373E-1,3.2654464E-1,-1.7547557E-1,-2.716786E-2,-7.586002E-4,-9.698946E-3,-0E0,2.7856728E-2,-0E0,-1.9336557E-2],"categories":[],"categories_nodes":[],"categories_segments":[],"categories_sizes":[],"default_left":[0,0,0,0,0,0,0,0,0,0,0,0,0],"id":4,"left_children":[1,3,5,7,9,11,-1,-1,-1,-1,-1,-1,-1],"loss_changes":[8.536634E0,6.9652205E0,2.344347E0,5.144598E0,2.7691214E0,1.8873447E0,0E0,0E0,0E0,0E0,0E0,0E0,0E0],"parents":[2147483647,0,0,1,1,2,2,3,3,4,4,5,5],"right_children":[2,4,6,8,10,12,-1,-1,-1,-1,-1,-1,-1],"split_conditions":[6.984987E-1,1.2E1,6E0,6.4E1,3.448276E-1,6E0,-2.716786E-2,-7.586002E-4,-9.698946E-3,-0E0,2.7856728E-2,-0E0,-1.9336557E-2],"split_indices":[40,6,2,21,19,23,0,0,0,0,0,0,0],"split_type":[0,0,0,0,0,0,0,0,0,0,0,0,0],"sum_hessian":[8.7902325E2,7.724326E2,1.0659058E2,7.418516E2,3.0581009E1,4.1901688E1,6.4688896E1,2.6093314E2,4.8091852E2,1.3123749E1,1.745726E1,2.3038078E1,1.886361E1],"tree_param":{"num_deleted":"0","num_feature":"44","num_nodes":"13","size_leaf_vector":"1"}},{"base_weights":[1.421338E-1,-2.0763274E-1,5.208728E-1,1.7526156E-1,-3.3128658E-1,7.886191E-1,1.857801E-1,1.6278593E-2,-1.38734225E-2,-2.6331265E-2,-8.831519E-3,4.3051135E-2,-0E0,1.3070628E-3,3.5187144E-2],"categories":[],"categories_nodes":[],"categories_segments":[],"categories_sizes":[],"default_left":[0,0,0,0,0,0,0,0,0,0,0,0,0,0,0],"id":5,"left_children":[1,3,5,7,9,11,13,-1,-1,-1,-1,-1,-1,-1,-1],"loss_changes":[1.3264232E2,2.4894915E1,4.1710403E1,8.936951E0,1.095652E1,1.4978958E1,1.7328558E1,0E0,0E0,0E0,0E0,0E0,0E0,0E0,0E0],"parents":[2147483647,0,0,1,1,2,2,3,3,4,4,5,5,6,6],"right_children":[2,4,6,8,10,12,14,-1,-1,-1,-1,-1,-1,-1,-1],"split_conditions":[5E0,3E0,4E0,4.7457626E-1,3E0,1.2E1,5.3333336E-1,1.6278593E-2,-1.38734225E-2,-2.6331265E-2,-8.831519E-3,4.3051135E-2,-0E0,1.3070628E-3,3.5187144E-2],"split_indices":[2,3,3,28,2,6,40,0,0,0,0,0,0,0,0],"split_type":[0,0,0,0,0,0,0,0,0,0,0,0,0,0,0],"sum_hessian":[9.934853E2,5.158299E2,4.776554E2,1.2363984E2,3.9219006E2,2.6159265E2,2.1606273E2,9.5112946E1,2.8526894E1,1.6725594E2,2.2493413E2,2.3916905E2,2.2423597E1,1.690444E2,4.7018326E1],"tree_param":{"num_deleted":"0","num_feature":"44","num_nodes":"15","size_leaf_vector":"1"}},{"base_weights":[-1.7773392E-2,-2.88401E-1,4.3958712E-1,2.0362532E-1,-4.0062946E-1,9.48631E-1,2.2272284E-1,-1.7771425E-2,1.507505E-2,-2.8263256E-2,-1.21784555E-2,1.1707395E-2,5.1414587E-2,1.7045507E-2,-8.435267E-3],"categories":[],"categories_nodes":[],"categories_segments":[],"categories_sizes":[],"default_left":[0,0,0,0,0,0,0,0,0,0,0,0,0,0,0],"id":6,"left_children":[1,3,5,7,9,11,13,-1,-1,-1,-1,-1,-1,-1,-1],"loss_changes":[1.15309555E2,3.287256E1,3.633026E1,6.2545147E0,1.1212952E1,3.758377E0,1.1796656E1,0E0,0E0,0E0,0E0,0E0,0E0,0E0,0E0],"parents":[2147483647,0,0,1,1,2,2,3,3,4,4,5,5,6,6],"right_children":[2,4,6,8,10,12,14,-1,-1,-1,-1,-1,-1,-1,-1],"split_conditions":[5E0,3E0,3E0,2E0,3E0,1.0769231E0,1.6506025E0,-1.7771425E-2,1.507505E-2,-2.8263256E-2,-1.21784555E-2,1.1707395E-2,5.1414587E-2,1.7045507E-2,-8.435267E-3],"split_indices":[3,2,2,3,3,29,20,0,0,0,0,0,0,0,0],"split_type":[0,0,0,0,0,0,0,0,0,0,0,0,0,0,0],"sum_hessian":[9.267595E2,5.843091E2,3.4245044E2,1.0641522E2,4.7789386E2,9.790489E1,2.4454553E2,1.3156364E1,9.325886E1,2.2640495E2,2.514889E2,1.2265541E1,8.563935E1,1.9009149E2,5.4454037E1],"tree_param":{"num_deleted":"0","num_feature":"44","num_nodes":"15","size_leaf_vector":"1"}},{"base_weights":[-1.4668939E-1,-1.0739205E-1,-4.17808E-1,-1.2815346E-1,3.5455075E-1,-0E0,-4.5272228E-1,-2.108503E-4,-9.546945E-3,-0E0,3.1268053E-2,-1.2725077E-2,-2.7119381E-2],"categories":[],"categories_nodes":[],"categories_segments":[],"categories_sizes":[],"default_left":[0,0,0,0,0,0,0,0,0,0,0,0,0],"id":7,"left_children":[1,3,5,7,9,-1,11,-1,-1,-1,-1,-1,-1],"loss_changes":[8.848572E0,7.4551067E0,1.5812969E0,5.69425E0,3.472578E0,0E0,5.719242E-1,0E0,0E0,0E0,0E0,0E0,0E0],"parents":[2147483647,0,0,1,1,2,2,3,3,4,4,6,6],"right_children":[2,4,6,8,10,-1,12,-1,-1,-1,-1,-1,-1],"split_conditions":[6.984987E-1,1.2E1,3E0,6.4E1,1E0,-0E0,2E0,-2.108503E-4,-9.546945E-3,-0E0,3.1268053E-2,-1.2725077E-2,-2.7119381E-2],"split_indices":[40,6,2,21,37,0,38,0,0,0,0,0,0],"split_type":[0,0,0,0,0,0,0,0,0,0,0,0,0],"sum_hessian":[8.8945056E2,7.837295E2,1.0572105E2,7.54167E2,2.9562529E1,8.407418E0,9.731363E1,2.600215E2,4.9414545E2,1.3216203E1,1.6346325E1,3.7369495E1,5.9944134E1],"tree_param":{"num_deleted":"0","num_feature":"44","num_nodes":"13","size_leaf_vector":"1"}},{"base_weights":[1.3676319E-1,-2.0382316E-1,4.9656203E-1,1.891332E-1,-3.3071283E-1,7.587132E-1,1.6192089E-1,-6.4847074E-3,1.949201E-2,-2.6598258E-2,-8.812173E-3,2.8809855E-2,4.5355827E-2,-8.408869E-4,2.4069287E-2],"categories":[],"categories_nodes":[],"categories_segments":[],"categories_sizes":[],"default_left":[0,0,0,0,0,0,0,0,0,0,0,0,0,0,0],"id":8,"left_children":[1,3,5,7,9,11,13,-1,-1,-1,-1,-1,-1,-1,-1],"loss_changes":[1.2284572E2,2.5917738E1,4.1470627E1,8.426605E0,1.11637E1,4.2841797E0,1.3028045E1,0E0,0E0,0E0,0E0,0E0,0E0,0E0,0E0],"parents":[2147483647,0,0,1,1,2,2,3,3,4,4,5,5,6,6],"right_children":[2,4,6,8,10,12,14,-1,-1,-1,-1,-1,-1,-1,-1],"split_conditions":[5E0,3E0,4E0,3E0,3E0,7E0,4.369748E-1,-6.4847074E-3,1.949201E-2,-2.6598258E-2,-8.812173E-3,2.8809855E-2,4.5355827E-2,-8.408869E-4,2.4069287E-2],"split_indices":[2,3,3,2,2,2,19,0,0,0,0,0,0,0,0],"split_type":[0,0,0,0,0,0,0,0,0,0,0,0,0,0,0],"sum_hessian":[9.946071E2,5.1018558E2,4.8442154E2,1.2224879E2,3.879368E2,2.6782376E2,2.1659776E2,4.5712517E1,7.653627E1,1.6246371E2,2.2547308E2,1.2969846E2,1.381253E2,1.38705E2,7.789276E1],"tree_param":{"num_deleted":"0","num_feature":"44","num_nodes":"15","size_leaf_vector":"1"}},{"base_weights":[-2.4369385E-2,-2.8394085E-1,4.0753785E-1,-5.861094E-2,-4.8121557E-1,8.5407346E-1,2.116186E-1,-2.6101073E-2,1.8296844E-3,-2.7899671E-2,-9.974464E-3,4.6270672E-2,7.6283007E-3,1.7956166E-2,-4.8325746E-3],"categories":[],"categories_nodes":[],"categories_segments":[],"categories_sizes":[],"default_left":[0,0,0,0,0,0,0,0,0,0,0,0,0,0,0],"id":9,"left_children":[1,3,5,7,9,11,13,-1,-1,-1,-1,-1,-1,-1,-1],"loss_changes":[1.0377032E2,2.516275E1,2.8705307E1,1.2745289E1,5.5389404E0,3.659195E0,1.1569617E1,0E0,0E0,0E0,0E0,0E0,0E0,0E0,0E0],"parents":[2147483647,0,0,1,1,2,2,3,3,4,4,5,5,6,6],"right_children":[2,4,6,8,10,12,14,-1,-1,-1,-1,-1,-1,-1,-1],"split_conditions":[5E0,5E0,3E0,2E0,4E0,1.5504587E0,6E0,-2.6101073E-2,1.8296844E-3,-2.7899671E-2,-9.974464E-3,4.6270672E-2,7.6283007E-3,1.7956166E-2,-4.8325746E-3],"split_indices":[3,2,2,3,3,27,2,0,0,0,0,0,0,0,0],"split_type":[0,0,0,0,0,0,0,0,0,0,0,0,0,0,0],"sum_hessian":[9.20611E2,5.771146E2,3.434964E2,2.735838E2,3.0353082E2,1.001208E2,2.433756E2,4.612476E1,2.2745905E2,2.3342493E2,7.0105896E1,8.871579E1,1.1405012E1,1.6647006E2,7.690554E1],"tree_param":{"num_deleted":"0","num_feature":"44","num_nodes":"15","size_leaf_vector":"1"}},{"base_weights":[-1.338629E-1,-8.022343E-2,-3.1581768E-1,-2.9520571E-2,-3.4218758E-1,1.3449696E-2,-4.372317E-1,-1.3533664E-2,1.08845496E-4,-1.999335E-2,7.932779E-4,-9.579716E-3,1.3827554E-2,-3.0518455E-2,-1.6573478E-2],"categories":[],"categories_nodes":[],"categories_segments":[],"categories_sizes":[],"default_left":[0,0,0,0,0,0,0,0,0,0,0,0,0,0,0],"id":10,"left_children":[1,3,5,7,9,11,13,-1,-1,-1,-1,-1,-1,-1,-1],"loss_changes":[8.074693E0,8.690872E0,8.201473E0,4.7041464E0,2.623825E0,3.1023104E0,1.0903282E0,0E0,0E0,0E0,0E0,0E0,0E0,0E0,0E0],"parents":[2147483647,0,0,1,1,2,2,3,3,4,4,5,5,6,6],"right_children":[2,4,6,8,10,12,14,-1,-1,-1,-1,-1,-1,-1,-1],"split_conditions":[7E0,7E0,1.2346939E0,1E0,1.5E1,9E0,1.112676E0,-1.3533664E-2,1.08845496E-4,-1.999335E-2,7.932779E-4,-9.579716E-3,1.3827554E-2,-3.0518455E-2,-1.6573478E-2],"split_indices":[2,3,17,18,4,41,29,0,0,0,0,0,0,0,0],"split_type":[0,0,0,0,0,0,0,0,0,0,0,0,0,0,0],"sum_hessian":[8.726945E2,6.815849E2,1.9110962E2,5.770524E2,1.0453246E2,4.9984924E1,1.411247E2,6.807465E1,5.089778E2,9.213312E1,1.2399348E1,2.6414064E1,2.3570858E1,4.4502876E1,9.662182E1],"tree_param":{"num_deleted":"0","num_feature":"44","num_nodes":"15","size_leaf_vector":"1"}},{"base_weights":[1.2697318E-1,-2.1143949E-1,4.7341278E-1,-4.4784752E-1,-4.426662E-2,7.1137816E-1,1.6597526E-1,-2.4625566E-2,-0E0,5.7030777E-3,-1.4957229E-2,3.9354682E-2,-2.3009998E-3,1.9496123E-3,3.313037E-2],"categories":[],"categories_nodes":[],"categories_segments":[],"categories_sizes":[],"default_left":[0,0,0,0,0,0,0,0,0,0,0,0,0,0,0],"id":11,"left_children":[1,3,5,7,9,11,13,-1,-1,-1,-1,-1,-1,-1,-1],"loss_changes":[1.1705988E2,1.9338255E1,3.4865242E1,4.5262146E0,1.24184475E1,1.6641724E1,1.3159382E1,0E0,0E0,0E0,0E0,0E0,0E0,0E0,0E0],"parents":[2147483647,0,0,1,1,2,2,3,3,4,4,5,5,6,6],"right_children":[2,4,6,8,10,12,14,-1,-1,-1,-1,-1,-1,-1,-1],"split_conditions":[5E0,3E0,4E0,1.688E0,5E0,1.2E1,1.9639127E-1,-2.4625566E-2,-0E0,5.7030777E-3,-1.4957229E-2,3.9354682E-2,-2.3009998E-3,1.9496123E-3,3.313037E-2],"split_indices":[2,2,3,27,3,6,39,0,0,0,0,0,0,0,0],"split_type":[0,0,0,0,0,0,0,0,0,0,0,0,0,0,0],"sum_hessian":[9.9067163E2,5.0027267E2,4.9039893E2,2.0266072E2,2.9761194E2,2.72377E2,2.1802191E2,1.8571068E2,1.6950054E1,1.8217825E2,1.15433685E2,2.487161E2,2.3660925E1,1.7780768E2,4.0214237E1],"tree_param":{"num_deleted":"0","num_feature":"44","num_nodes":"15","size_leaf_vector":"1"}},{"base_weights":[-6.5772342E-3,-3.540424E-1,2.8336582E-1,-3.433529E-2,-4.9920171E-1,6.2414306E-1,2.1084894E-3,-2.3307385E-2,4.0583485E-3,-0E0,-2.6274865E-2,3.8809802E-2,1.7920403E-2,6.4494363E-3,-1.6129956E-2],"categories":[],"categories_nodes":[],"categories_segments":[],"categories_sizes":[],"default_left":[0,0,0,0,0,0,0,0,0,0,0,0,0,0,0],"id":12,"left_children":[1,3,5,7,9,11,13,-1,-1,-1,-1,-1,-1,-1,-1],"loss_changes":[9.361308E1,1.9087608E1,4.7735443E1,7.3683124E0,4.3104324E0,7.1846848E0,1.1510982E1,0E0,0E0,0E0,0E0,0E0,0E0,0E0,0E0],"parents":[2147483647,0,0,1,1,2,2,3,3,4,4,5,5,6,6],"right_children":[2,4,6,8,10,12,14,-1,-1,-1,-1,-1,-1,-1,-1],"split_conditions":[4E0,4E0,4E0,2E0,2E0,3E0,1.6590909E0,-2.3307385E-2,4.0583485E-3,-0E0,-2.6274865E-2,3.8809802E-2,1.7920403E-2,6.4494363E-3,-1.6129956E-2],"split_indices":[3,2,2,3,13,2,20,0,0,0,0,0,0,0,0],"split_type":[0,0,0,0,0,0,0,0,0,0,0,0,0,0,0],"sum_hessian":[9.225182E2,4.2090048E2,5.016177E2,1.3474E2,2.861605E2,2.2354866E2,2.7806903E2,2.8339891E1,1.0640011E2,1.260567E1,2.7355484E2,1.3612961E2,8.741905E1,2.0345607E2,7.461297E1],"tree_param":{"num_deleted":"0","num_feature":"44","num_nodes":"15","size_leaf_vector":"1"}},{"base_weights":[-1.4208713E-1,-1.1077654E-1,-4.558208E-1,-1.3808727E-1,2.4378355E-1,-2.6975465E-3,-2.4829697E-2,-9.004891E-3,6.364672E-4,-2.2979423E-3,2.1535572E-2],"categories":[],"categories_nodes":[],"categories_segments":[],"categories_sizes":[],"default_left":[0,0,0,0,0,0,0,0,0,0,0],"id":13,"left_children":[1,3,5,7,9,-1,-1,-1,-1,-1,-1],"loss_changes":[7.9370975E0,7.819435E0,6.158972E-1,4.9562635E0,3.490861E0,0E0,0E0,0E0,0E0,0E0,0E0],"parents":[2147483647,0,0,1,1,2,2,3,3,4,4],"right_children":[2,4,6,8,10,-1,-1,-1,-1,-1,-1],"split_conditions":[8.4444445E-1,1.1E1,6E0,3E0,2.9411766E-1,-2.6975465E-3,-2.4829697E-2,-9.004891E-3,6.364672E-4,-2.2979423E-3,2.1535572E-2],"split_indices":[40,6,5,8,28,0,0,0,0,0,0],"split_type":[0,0,0,0,0,0,0,0,0,0,0],"sum_hessian":[8.780967E2,8.05004E2,7.309264E1,7.5175085E2,5.3253162E1,9.633922E0,6.345872E1,5.9270013E2,1.5905075E2,1.9672733E1,3.358043E1],"tree_param":{"num_deleted":"0","num_feature":"44","num_nodes":"11","size_leaf_vector":"1"}},{"base_weights":[1.3009039E-1,-1.9218585E-1,4.5050904E-1,1.6381304E-1,-3.1193176E-1,6.7840874E-1,1.5855831E-1,1.5373349E-2,-9.167831E-3,-2.5016848E-2,-8.071776E-3,3.7174586E-2,-0E0,8.2613056E-4,3.0469839E-2],"categories":[],"categories_nodes":[],"categories_segments":[],"categories_sizes":[],"default_left":[0,0,0,0,0,0,0,0,0,0,0,0,0,0,0],"id":14,"left_children":[1,3,5,7,9,11,13,-1,-1,-1,-1,-1,-1,-1,-1],"loss_changes":[1.0290861E2,2.1398203E1,3.2085457E1,6.4988146E0,9.685059E0,1.2577827E1,1.3744547E1,0E0,0E0,0E0,0E0,0E0,0E0,0E0,0E0],"parents":[2147483647,0,0,1,1,2,2,3,3,4,4,5,5,6,6],"right_children":[2,4,6,8,10,12,14,-1,-1,-1,-1,-1,-1,-1,-1],"split_conditions":[5E0,3E0,4E0,1.5714285E0,3E0,1.2E1,5.3333336E-1,1.5373349E-2,-9.167831E-3,-2.5016848E-2,-8.071776E-3,3.7174586E-2,-0E0,8.2613056E-4,3.0469839E-2],"split_indices":[2,3,3,29,2,6,40,0,0,0,0,0,0,0,0],"split_type":[0,0,0,0,0,0,0,0,0,0,0,0,0,0,0],"sum_hessian":[9.885481E2,4.9188806E2,4.9666003E2,1.21429344E2,3.704587E2,2.7477304E2,2.21887E2,8.816955E1,3.32598E1,1.5846234E2,2.1199637E2,2.5102446E2,2.3748571E1,1.727808E2,4.9106186E1],"tree_param":{"num_deleted":"0","num_feature":"44","num_nodes":"15","size_leaf_vector":"1"}},{"base_weights":[-7.871134E-3,-2.5866628E-1,3.9363992E-1,-2.6363088E-2,-4.69367E-1,8.2562786E-1,2.075447E-1,-2.4338398E-2,3.1900231E-3,-2.6662812E-2,-1.15124425E-2,1.9724315E-2,4.5908358E-2,1.9867474E-2,-5.1670376E-4],"categories":[],"categories_nodes":[],"categories_segments":[],"categories_sizes":[],"default_left":[0,0,0,0,0,0,0,0,0,0,0,0,0,0,0],"id":15,"left_children":[1,3,5,7,9,11,13,-1,-1,-1,-1,-1,-1,-1,-1],"loss_changes":[9.4500206E1,2.7853535E1,2.7379005E1,1.21921215E1,3.4769058E0,1.8183365E0,1.1031933E1,0E0,0E0,0E0,0E0,0E0,0E0,0E0,0E0],"parents":[2147483647,0,0,1,1,2,2,3,3,4,4,5,5,6,6],"right_children":[2,4,6,8,10,12,14,-1,-1,-1,-1,-1,-1,-1,-1],"split_conditions":[5E0,5E0,3E0,2E0,4E0,1.2222222E0,-1.0769231E-1,-2.4338398E-2,3.1900231E-3,-2.6662812E-2,-1.15124425E-2,1.9724315E-2,4.5908358E-2,1.9867474E-2,-5.1670376E-4],"split_indices":[3,2,2,3,3,26,40,0,0,0,0,0,0,0,0],"split_type":[0,0,0,0,0,0,0,0,0,0,0,0,0,0,0],"sum_hessian":[9.337676E2,5.769477E2,3.5681992E2,2.7826953E2,2.9867816E2,1.02710915E2,2.54109E2,4.522591E1,2.3304362E2,2.294893E2,6.918886E1,2.2849545E1,7.986137E1,1.3693597E2,1.1717303E2],"tree_param":{"num_deleted":"0","num_feature":"44","num_nodes":"15","size_leaf_vector":"1"}},{"base_weights":[-1.360861E-1,-8.957231E-2,-3.5358435E-1,-1.1223391E-1,2.4721462E-1,8.579497E-3,-4.156778E-1,-8.036901E-3,1.0887177E-3,-0E0,2.15095E-2,-9.641465E-4,-2.2815347E-2],"categories":[],"categories_nodes":[],"categories_segments":[],"categories_sizes":[],"default_left":[0,0,0,0,0,0,0,0,0,0,0,0,0],"id":16,"left_children":[1,3,5,7,9,-1,11,-1,-1,-1,-1,-1,-1],"loss_changes":[8.188718E0,5.43158E0,5.2573357E0,4.55645E0,2.333639E0,0E0,1.6591778E0,0E0,0E0,0E0,0E0,0E0,0E0],"parents":[2147483647,0,0,1,1,2,2,3,3,4,4,6,6],"right_children":[2,4,6,8,10,-1,12,-1,-1,-1,-1,-1,-1],"split_conditions":[1.9379845E-1,1.1E1,3E0,1.3E1,1.9E1,8.579497E-3,2E0,-8.036901E-3,1.0887177E-3,-0E0,2.15095E-2,-9.641465E-4,-2.2815347E-2],"split_indices":[39,6,2,4,0,0,42,0,0,0,0,0,0],"split_type":[0,0,0,0,0,0,0,0,0,0,0,0,0],"sum_hessian":[8.596249E2,7.1545264E2,1.4417223E2,6.750028E2,4.0449844E1,1.298158E1,1.3119064E2,5.0065512E2,1.7434766E2,1.6491096E1,2.3958748E1,1.4895972E1,1.1629467E2],"tree_param":{"num_deleted":"0","num_feature":"44","num_nodes":"13","size_leaf_vector":"1"}},{"base_weights":[1.3300459E-1,-8.604096E-2,5.5810547E-1,8.465054E-2,-3.4213197E-1,7.4531525E-1,2.680206E-1,-1.2319375E-2,1.0780132E-2,-2.3323504E-2,-0E0,3.9392915E-2,-1.7438972E-3,2.2892195E-3,2.536322E-2],"categories":[],"categories_nodes":[],"categories_segments":[],"categories_sizes":[],"default_left":[0,0,0,0,0,0,0,0,0,0,0,0,0,0,0],"id":17,"left_children":[1,3,5,7,9,11,13,-1,-1,-1,-1,-1,-1,-1,-1],"loss_changes":[9.225447E1,2.8780064E1,1.6667618E1,1.705264E1,1.1070871E1,7.5003815E0,6.7575626E0,0E0,0E0,0E0,0E0,0E0,0E0,0E0,0E0],"parents":[2147483647,0,0,1,1,2,2,3,3,4,4,5,5,6,6],"right_children":[2,4,6,8,10,12,14,-1,-1,-1,-1,-1,-1,-1,-1],"split_conditions":[6E0,5E0,4E0,3E0,2.6495727E-2,1.3E1,1.19124405E-1,-1.2319375E-2,1.0780132E-2,-2.3323504E-2,-0E0,3.9392915E-2,-1.7438972E-3,2.2892195E-3,2.536322E-2],"split_indices":[2,3,3,2,40,6,40,0,0,0,0,0,0,0,0],"split_type":[0,0,0,0,0,0,0,0,0,0,0,0,0,0,0],"sum_hessian":[9.811262E2,6.475155E2,3.3361075E2,3.8740393E2,2.6011157E2,1.9780177E2,1.3580896E2,1.0689634E2,2.805076E2,1.8941864E2,7.069294E1,1.8876112E2,9.040655E0,7.442692E1,6.1382042E1],"tree_param":{"num_deleted":"0","num_feature":"44","num_nodes":"15","size_leaf_vector":"1"}},{"base_weights":[-9.447351E-3,3.4299234E-1,-2.2848567E-1,4.7272998E-1,2.0726856E-2,4.3494225E-2,-3.7579542E-1,-9.783703E-3,2.5373796E-2,1.02489265E-2,-7.888802E-3,1.9140149E-2,-3.7049688E-3,-1.4280952E-2,-2.4723804E-2],"categories":[],"categories_nodes":[],"categories_segments":[],"categories_sizes":[],"default_left":[0,0,0,0,0,0,0,0,0,0,0,0,0,0,0],"id":18,"left_children":[1,3,5,7,9,11,13,-1,-1,-1,-1,-1,-1,-1,-1],"loss_changes":[7.171791E1,1.4316643E1,2.343993E1,6.4321175E0,3.6707664E0,8.473823E0,2.8204575E0,0E0,0E0,0E0,0E0,0E0,0E0,0E0,0E0],"parents":[2147483647,0,0,1,1,2,2,3,3,4,4,5,5,6,6],"right_children":[2,4,6,8,10,12,14,-1,-1,-1,-1,-1,-1,-1,-1],"split_conditions":[4E0,1.1828512E-2,-1.25E-1,7E0,3E0,-6.666667E-1,7E0,-9.783703E-3,2.5373796E-2,1.02489265E-2,-7.888802E-3,1.9140149E-2,-3.7049688E-3,-1.4280952E-2,-2.4723804E-2],"split_indices":[2,39,40,1,2,40,2,0,0,0,0,0,0,0,0],"split_type":[0,0,0,0,0,0,0,0,0,0,0,0,0,0,0],"sum_hessian":[9.244527E2,3.519273E2,5.725254E2,2.4770322E2,1.0422408E2,1.9950412E2,3.7302127E2,1.01314125E1,2.3757181E2,5.3823925E1,5.0400154E1,5.179396E1,1.4771016E2,2.225604E2,1.5046088E2],"tree_param":{"num_deleted":"0","num_feature":"44","num_nodes":"15","size_leaf_vector":"1"}},{"base_weights":[-1.2990884E-1,-9.936892E-2,-4.4640353E-1,-1.2676841E-1,2.4186568E-1,-4.8215896E-1,-0E0,-2.7385976E-3,-1.0859692E-2,-1.237799E-4,2.0599319E-2,-2.617254E-2,-2.1944775E-3],"categories":[],"categories_nodes":[],"categories_segments":[],"categories_sizes":[],"default_left":[0,0,0,0,0,0,0,0,0,0,0,0,0],"id":19,"left_children":[1,3,5,7,9,11,-1,-1,-1,-1,-1,-1,-1],"loss_changes":[7.631383E0,7.370987E0,7.450762E-1,4.4887686E0,2.7860723E0,5.3740215E-1,0E0,0E0,0E0,0E0,0E0,0E0,0E0],"parents":[2147483647,0,0,1,1,2,2,3,3,4,4,5,5],"right_children":[2,4,6,8,10,12,-1,-1,-1,-1,-1,-1,-1],"split_conditions":[8.4444445E-1,1.1E1,1.82E2,5E0,2.9850745E-1,1.5E1,-0E0,-2.7385976E-3,-1.0859692E-2,-1.237799E-4,2.0599319E-2,-2.617254E-2,-2.1944775E-3],"split_indices":[40,6,21,2,28,14,0,0,0,0,0,0,0],"split_type":[0,0,0,0,0,0,0,0,0,0,0,0,0],"sum_hessian":[8.5676306E2,7.8784235E2,6.892075E1,7.3374243E2,5.4099926E1,6.1854362E1,7.066393E0,4.1733636E2,3.1640604E2,2.1006636E1,3.309329E1,5.391039E1,7.943976E0],"tree_param":{"num_deleted":"0","num_feature":"44","num_nodes":"13","size_leaf_vector":"1"}},{"base_weights":[1.13778025E-1,-1.11496925E-1,5.4258734E-1,-2.7451664E-1,1.269342E-1,3.385666E-1,7.881982E-1,-4.2059734E-3,-2.2915483E-2,-2.1985494E-2,9.494504E-3,2.7487343E-2,4.629993E-3,4.28391E-2,1.8487366E-2],"categories":[],"categories_nodes":[],"categories_segments":[],"categories_sizes":[],"default_left":[0,0,0,0,0,0,0,0,0,0,0,0,0,0,0],"id":20,"left_children":[1,3,5,7,9,11,13,-1,-1,-1,-1,-1,-1,-1,-1],"loss_changes":[9.6967735E1,2.570684E1,1.538958E1,1.3073132E1,9.471788E0,9.399109E0,2.1946335E0,0E0,0E0,0E0,0E0,0E0,0E0,0E0,0E0],"parents":[2147483647,0,0,1,1,2,2,3,3,4,4,5,5,6,6],"right_children":[2,4,6,8,10,12,14,-1,-1,-1,-1,-1,-1,-1,-1],"split_conditions":[6E0,6.993007E-3,1.379224E-1,5E0,2E0,4E0,1.1E1,-4.2059734E-3,-2.2915483E-2,-2.1985494E-2,9.494504E-3,2.7487343E-2,4.629993E-3,4.28391E-2,1.8487366E-2],"split_indices":[2,40,39,3,2,3,6,0,0,0,0,0,0,0,0],"split_type":[0,0,0,0,0,0,0,0,0,0,0,0,0,0,0],"sum_hessian":[9.944654E2,6.518854E2,3.4258002E2,3.8939142E2,2.6249396E2,1.9325577E2,1.4932425E2,1.9607985E2,1.9331155E2,2.286416E1,2.3962979E2,9.979974E1,9.3456024E1,1.2354331E2,2.5780941E1],"tree_param":{"num_deleted":"0","num_feature":"44","num_nodes":"15","size_leaf_vector":"1"}},{"base_weights":[-7.2647394E-3,-2.4876446E-1,3.757819E-1,1.9812632E-1,-3.6172536E-1,6.330039E-1,1.2583195E-1,-1.7966805E-2,1.46946935E-2,-7.82344E-3,-2.430345E-2,7.6216743E-3,3.5331693E-2,-2.1224441E-4,2.5590448E-2],"categories":[],"categories_nodes":[],"categories_segments":[],"categories_sizes":[],"default_left":[0,0,0,0,0,0,0,0,0,0,0,0,0,0,0],"id":21,"left_children":[1,3,5,7,9,11,13,-1,-1,-1,-1,-1,-1,-1,-1],"loss_changes":[8.5929504E1,2.9259312E1,2.2028221E1,6.4221497E0,1.0857391E1,4.9671707E0,9.920581E0,0E0,0E0,0E0,0E0,0E0,0E0,0E0,0E0],"parents":[2147483647,0,0,1,1,2,2,3,3,4,4,5,5,6,6],"right_children":[2,4,6,8,10,12,14,-1,-1,-1,-1,-1,-1,-1,-1],"split_conditions":[5E0,3E0,4E0,2E0,-3.3995816E-3,2.8994083E-1,5.15625E-1,-1.7966805E-2,1.46946935E-2,-7.82344E-3,-2.430345E-2,7.6216743E-3,3.5331693E-2,-2.1224441E-4,2.5590448E-2],"split_indices":[3,2,2,3,40,28,28,0,0,0,0,0,0,0,0],"split_type":[0,0,0,0,0,0,0,0,0,0,0,0,0,0,0],"sum_hessian":[9.2425226E2,5.691084E2,3.551439E2,1.1258606E2,4.565223E2,1.707883E2,1.8435558E2,1.3764504E1,9.8821556E1,1.7781564E2,2.7870667E2,2.5718718E1,1.450696E2,1.3816815E2,4.6187416E1],"tree_param":{"num_deleted":"0","num_feature":"44","num_nodes":"15","size_leaf_vector":"1"}},{"base_weights":[-1.144259E-1,-8.530147E-2,-4.1597107E-1,-4.427168E-2,-3.1313878E-1,-4.7114203E-4,-4.569348E-1,-3.2963303E-3,1.7925E-2,-1.9581402E-2,-1.579894E-3,-2.4852319E-2,-1.4678381E-3],"categories":[],"categories_nodes":[],"categories_segments":[],"categories_sizes":[],"default_left":[0,0,0,0,0,0,0,0,0,0,0,0,0],"id":22,"left_children":[1,3,5,7,9,-1,11,-1,-1,-1,-1,-1,-1],"loss_changes":[7.0257273E0,7.0741215E0,7.3240185E-1,5.749792E0,2.1423664E0,0E0,5.240326E-1,0E0,0E0,0E0,0E0,0E0,0E0],"parents":[2147483647,0,0,1,1,2,2,3,3,4,4,6,6],"right_children":[2,4,6,8,10,-1,12,-1,-1,-1,-1,-1,-1],"split_conditions":[8.4444445E-1,7E0,6E0,1.2E1,1E0,-4.7114203E-4,1.82E2,-3.2963303E-3,1.7925E-2,-1.9581402E-2,-1.579894E-3,-2.4852319E-2,-1.4678381E-3],"split_indices":[40,3,5,6,36,0,21,0,0,0,0,0,0],"split_type":[0,0,0,0,0,0,0,0,0,0,0,0,0],"sum_hessian":[8.6618243E2,7.9642535E2,6.975704E1,6.816444E2,1.1478099E2,8.957684E0,6.079936E1,6.5160284E2,3.0041525E1,8.606302E1,2.8717972E1,5.3001106E1,7.79825E0],"tree_param":{"num_deleted":"0","num_feature":"44","num_nodes":"13","size_leaf_vector":"1"}},{"base_weights":[1.13514364E-1,-8.787576E-2,5.006767E-1,2.5862655E-1,-2.1720982E-1,2.768326E-1,7.110135E-1,-3.1205106E-3,1.8963313E-2,-2.3167402E-2,-4.7781826E-3,1.9275116E-2,-5.393224E-3,3.7607264E-2,6.4973147E-3],"categories":[],"categories_nodes":[],"categories_segments":[],"categories_sizes":[],"default_left":[0,0,0,0,0,0,0,0,0,0,0,0,0,0,0],"id":23,"left_children":[1,3,5,7,9,11,13,-1,-1,-1,-1,-1,-1,-1,-1],"loss_changes":[7.819175E1,2.9522911E1,1.4566536E1,7.264554E0,1.3721846E1,7.6486263E0,2.9491882E0,0E0,0E0,0E0,0E0,0E0,0E0,0E0,0E0],"parents":[2147483647,0,0,1,1,2,2,3,3,4,4,5,5,6,6],"right_children":[2,4,6,8,10,12,14,-1,-1,-1,-1,-1,-1,-1,-1],"split_conditions":[6E0,3E0,8.928572E-2,3E0,3E0,9E0,6E0,-3.1205106E-3,1.8963313E-2,-2.3167402E-2,-4.7781826E-3,1.9275116E-2,-5.393224E-3,3.7607264E-2,6.4973147E-3],"split_indices":[2,3,39,2,2,6,3,0,0,0,0,0,0,0,0],"split_type":[0,0,0,0,0,0,0,0,0,0,0,0,0,0,0],"sum_hessian":[9.928483E2,6.529432E2,3.3990512E2,1.7455562E2,4.7838757E2,1.7033467E2,1.6957043E2,4.5809597E1,1.2874602E2,1.5272238E2,3.256652E2,1.348385E2,3.5496178E1,1.5592853E2,1.3641901E1],"tree_param":{"num_deleted":"0","num_feature":"44","num_nodes":"15","size_leaf_vector":"1"}},{"base_weights":[-1.9443826E-3,-3.2992324E-1,2.5906172E-1,-1.2577829E-1,-5.071993E-1,6.680977E-1,1.02747135E-1,-2.4571033E-2,-3.3232148E-4,-2.0137706E-3,-2.7298158E-2,3.7041362E-2,2.0726926E-3,1.5892891E-2,-4.1634897E-3],"categories":[],"categories_nodes":[],"categories_segments":[],"categories_sizes":[],"default_left":[0,0,0,0,0,0,0,0,0,0,0,0,0,0,0],"id":24,"left_children":[1,3,5,7,9,11,13,-1,-1,-1,-1,-1,-1,-1,-1],"loss_changes":[7.932197E1,1.4083977E1,3.1877296E1,8.120195E0,3.2731285E0,5.4951477E0,1.5402639E1,0E0,0E0,0E0,0E0,0E0,0E0,0E0,0E0],"parents":[2147483647,0,0,1,1,2,2,3,3,4,4,5,5,6,6],"right_children":[2,4,6,8,10,12,14,-1,-1,-1,-1,-1,-1,-1,-1],"split_conditions":[4E0,5E0,3E0,2E0,1E0,1.5585586E0,-5.0847456E-2,-2.4571033E-2,-3.3232148E-4,-2.0137706E-3,-2.7298158E-2,3.7041362E-2,2.0726926E-3,1.5892891E-2,-4.1634897E-3],"split_indices":[3,2,2,3,16,27,39,0,0,0,0,0,0,0,0],"split_type":[0,0,0,0,0,0,0,0,0,0,0,0,0,0,0],"sum_hessian":[9.197868E2,4.089463E2,5.108405E2,1.9507458E2,2.1387172E2,1.3675847E2,3.7408206E2,4.3572308E1,1.5150227E2,1.8840914E1,1.9503079E2,1.20616974E2,1.6141495E1,1.7498189E2,1.9910016E2],"tree_param":{"num_deleted":"0","num_feature":"44","num_nodes":"15","size_leaf_vector":"1"}},{"base_weights":[-1.1965066E-1,-8.255541E-2,-3.8249305E-1,-4.288692E-2,-2.9684225E-1,-0E0,-4.245058E-1,2.0340509E-3,-7.058013E-3,-1.8259885E-2,7.0836316E-3,-2.5931945E-2,-1.2722624E-2],"categories":[],"categories_nodes":[],"categories_segments":[],"categories_sizes":[],"default_left":[0,0,0,0,0,0,0,0,0,0,0,0,0],"id":25,"left_children":[1,3,5,7,9,-1,11,-1,-1,-1,-1,-1,-1],"loss_changes":[7.8121557E0,6.079077E0,1.7399931E0,5.4426866E0,3.802125E0,0E0,3.115921E-1,0E0,0E0,0E0,0E0,0E0,0E0],"parents":[2147483647,0,0,1,1,2,2,3,3,4,4,6,6],"right_children":[2,4,6,8,10,-1,12,-1,-1,-1,-1,-1,-1],"split_conditions":[6.984987E-1,7E0,3E0,5E0,1.5E1,-0E0,2E0,2.0340509E-3,-7.058013E-3,-1.8259885E-2,7.0836316E-3,-2.5931945E-2,-1.2722624E-2],"split_indices":[40,3,2,2,4,0,9,0,0,0,0,0,0],"split_type":[0,0,0,0,0,0,0,0,0,0,0,0,0],"sum_hessian":[8.556419E2,7.566078E2,9.9034096E1,6.4539935E2,1.1120843E2,9.541319E0,8.9492775E1,3.442471E2,3.0115228E2,9.861793E1,1.2590497E1,4.9861713E1,3.9631065E1],"tree_param":{"num_deleted":"0","num_feature":"44","num_nodes":"13","size_leaf_vector":"1"}},{"base_weights":[1.2166257E-1,-8.5170485E-2,5.082054E-1,-2.5435102E-1,1.4254832E-1,6.805103E-1,2.4252489E-1,-4.2579146E-3,-2.1239344E-2,1.9757798E-2,-1.8761593E-5,3.6036655E-2,-0E0,2.1453097E-3,2.2584507E-2],"categories":[],"categories_nodes":[],"categories_segments":[],"categories_sizes":[],"default_left":[0,0,0,0,0,0,0,0,0,0,0,0,0,0,0],"id":26,"left_children":[1,3,5,7,9,11,13,-1,-1,-1,-1,-1,-1,-1,-1],"loss_changes":[7.982703E1,2.5139261E1,1.4500702E1,1.0186565E1,1.0327636E1,5.9111404E0,5.449152E0,0E0,0E0,0E0,0E0,0E0,0E0,0E0,0E0],"parents":[2147483647,0,0,1,1,2,2,3,3,4,4,5,5,6,6],"right_children":[2,4,6,8,10,12,14,-1,-1,-1,-1,-1,-1,-1,-1],"split_conditions":[6E0,-3.3995816E-3,4E0,5E0,3E0,1.3E1,4.004065E-2,-4.2579146E-3,-2.1239344E-2,1.9757798E-2,-1.8761593E-5,3.6036655E-2,-0E0,2.1453097E-3,2.2584507E-2],"split_indices":[2,40,3,3,3,6,39,0,0,0,0,0,0,0,0],"split_type":[0,0,0,0,0,0,0,0,0,0,0,0,0,0,0],"sum_hessian":[9.885486E2,6.438086E2,3.4474002E2,3.7169983E2,2.7210873E2,2.0399359E2,1.4074644E2,1.9173225E2,1.7996758E2,9.894049E1,1.7316824E2,1.9291385E2,1.1079731E1,7.6312874E1,6.443356E1],"tree_param":{"num_deleted":"0","num_feature":"44","num_nodes":"15","size_leaf_vector":"1"}},{"base_weights":[-8.734535E-3,-3.1750256E-1,2.3970617E-1,5.7701066E-2,-4.0984428E-1,6.6286445E-1,7.309197E-2,-1.727773E-2,8.341133E-3,6.3075284E-3,-2.1754626E-2,3.4998264E-2,-0E0,-2.0623922E-3,2.1305354E-2],"categories":[],"categories_nodes":[],"categories_segments":[],"categories_sizes":[],"default_left":[0,0,0,0,0,0,0,0,0,0,0,0,0,0,0],"id":27,"left_children":[1,3,5,7,9,11,13,-1,-1,-1,-1,-1,-1,-1,-1],"loss_changes":[7.091551E1,1.47492485E1,3.5074085E1,3.6094148E0,4.998104E0,3.360176E0,1.541137E1,0E0,0E0,0E0,0E0,0E0,0E0,0E0,0E0],"parents":[2147483647,0,0,1,1,2,2,3,3,4,4,5,5,6,6],"right_children":[2,4,6,8,10,12,14,-1,-1,-1,-1,-1,-1,-1,-1],"split_conditions":[4E0,3E0,3E0,2E0,-2.6916867E-1,2.01E2,7E0,-1.727773E-2,8.341133E-3,6.3075284E-3,-2.1754626E-2,3.4998264E-2,-0E0,-2.0623922E-3,2.1305354E-2],"split_indices":[3,2,2,3,39,12,3,0,0,0,0,0,0,0,0],"split_type":[0,0,0,0,0,0,0,0,0,0,0,0,0,0,0],"sum_hessian":[9.174652E2,4.1048984E2,5.0697537E2,7.915652E1,3.313333E2,1.390037E2,3.6797168E2,1.3522042E1,6.5634476E1,1.258434E1,3.18749E2,1.3120732E2,7.796373E0,2.7780786E2,9.0163826E1],"tree_param":{"num_deleted":"0","num_feature":"44","num_nodes":"15","size_leaf_vector":"1"}},{"base_weights":[-1.1442877E-1,-7.648071E-2,-3.950424E-1,-4.239869E-2,-2.6123953E-1,-0E0,-4.3345034E-1,-4.003013E-3,5.0844806E-3,-1.6831113E-2,-0E0,-2.2987965E-2,-7.9114095E-4],"categories":[],"categories_nodes":[],"categories_segments":[],"categories_sizes":[],"default_left":[0,0,0,0,0,0,0,0,0,0,0,0,0],"id":28,"left_children":[1,3,5,7,9,-1,11,-1,-1,-1,-1,-1,-1],"loss_changes":[8.506228E0,4.4299746E0,1.5550013E0,3.5152254E0,2.0463848E0,0E0,4.8413277E-1,0E0,0E0,0E0,0E0,0E0,0E0],"parents":[2147483647,0,0,1,1,2,2,3,3,4,4,6,6],"right_children":[2,4,6,8,10,-1,12,-1,-1,-1,-1,-1,-1],"split_conditions":[6.984987E-1,7E0,3E0,3E0,1E0,-0E0,3E0,-4.003013E-3,5.0844806E-3,-1.6831113E-2,-0E0,-2.2987965E-2,-7.9114095E-4],"split_indices":[40,3,2,8,36,0,8,0,0,0,0,0,0],"split_type":[0,0,0,0,0,0,0,0,0,0,0,0,0],"sum_hessian":[8.485925E2,7.540075E2,9.458501E1,6.4426276E2,1.0974472E2,8.251172E0,8.633384E1,5.173198E2,1.2694293E2,8.296224E1,2.6782476E1,7.868016E1,7.653681E0],"tree_param":{"num_deleted":"0","num_feature":"44","num_nodes":"13","size_leaf_vector":"1"}},{"base_weights":[1.2074789E-1,-1.5130697E-1,3.9017224E-1,1.550001E-1,-2.5845447E-1,5.258714E-1,4.130284E-2,1.5431113E-2,-1.0559591E-2,-2.2102492E-2,-6.3282833E-3,3.1516768E-2,1.2007239E-2,2.7503833E-2,-3.9953715E-3],"categories":[],"categories_nodes":[],"categories_segments":[],"categories_sizes":[],"default_left":[0,0,0,0,0,0,0,0,0,0,0,0,0,0,0],"id":29,"left_children":[1,3,5,7,9,11,13,-1,-1,-1,-1,-1,-1,-1,-1],"loss_changes":[7.346744E1,1.6509302E1,2.3200356E1,7.4964805E0,8.250875E0,9.424431E0,9.624063E0,0E0,0E0,0E0,0E0,0E0,0E0,0E0,0E0],"parents":[2147483647,0,0,1,1,2,2,3,3,4,4,5,5,6,6],"right_children":[2,4,6,8,10,12,14,-1,-1,-1,-1,-1,-1,-1,-1],"split_conditions":[5E0,3E0,5E0,1.5714285E0,3E0,9E0,1.0612245E0,1.5431113E-2,-1.0559591E-2,-2.2102492E-2,-6.3282833E-3,3.1516768E-2,1.2007239E-2,2.7503833E-2,-3.9953715E-3],"split_indices":[2,3,3,29,2,6,18,0,0,0,0,0,0,0,0],"split_type":[0,0,0,0,0,0,0,0,0,0,0,0,0,0,0],"sum_hessian":[9.936339E2,4.9321103E2,5.0042285E2,1.2505068E2,3.6816034E2,3.571243E2,1.4329855E2,9.035011E1,3.4700565E1,1.4779109E2,2.2036926E2,2.5630066E2,1.00823654E2,2.711601E1,1.1618254E2],"tree_param":{"num_deleted":"0","num_feature":"44","num_nodes":"15","size_leaf_vector":"1"}},{"base_weights":[-3.3867336E-3,-2.3278314E-1,3.472015E-1,-3.804959E-2,-4.208797E-1,7.0551765E-1,1.837517E-1,-2.3211343E-2,2.2068473E-3,-9.945211E-4,-2.344005E-2,3.8419385E-2,6.4824647E-3,1.8913753E-2,-1.7066343E-3],"categories":[],"categories_nodes":[],"categories_segments":[],"categories_sizes":[],"default_left":[0,0,0,0,0,0,0,0,0,0,0,0,0,0,0],"id":30,"left_children":[1,3,5,7,9,11,13,-1,-1,-1,-1,-1,-1,-1,-1],"loss_changes":[7.35236E1,1.9828337E1,1.9831429E1,1.0242782E1,4.853977E0,2.783409E0,1.112707E1,0E0,0E0,0E0,0E0,0E0,0E0,0E0,0E0],"parents":[2147483647,0,0,1,1,2,2,3,3,4,4,5,5,6,6],"right_children":[2,4,6,8,10,12,14,-1,-1,-1,-1,-1,-1,-1,-1],"split_conditions":[5E0,5E0,3E0,2E0,-4.6824962E-1,1.5504587E0,-1.3157895E-1,-2.3211343E-2,2.2068473E-3,-9.945211E-4,-2.344005E-2,3.8419385E-2,6.4824647E-3,1.8913753E-2,-1.7066343E-3],"split_indices":[3,2,2,3,40,27,40,0,0,0,0,0,0,0,0],"split_type":[0,0,0,0,0,0,0,0,0,0,0,0,0,0,0],"sum_hessian":[9.096112E2,5.5217395E2,3.574373E2,2.7568484E2,2.764891E2,1.0693845E2,2.5049884E2,4.428219E1,2.3140265E2,3.219606E1,2.4429305E2,9.3942856E1,1.2995595E1,1.3360228E2,1.1689656E2],"tree_param":{"num_deleted":"0","num_feature":"44","num_nodes":"15","size_leaf_vector":"1"}},{"base_weights":[-1.03849225E-1,-5.8725975E-2,-3.0655298E-1,3.2971103E-2,-1.3876747E-1,-3.4937388E-1,3.256835E-3,8.193971E-3,-1.0321013E-2,-1.368654E-2,-2.6583879E-3,-1.8982789E-2,-0E0],"categories":[],"categories_nodes":[],"categories_segments":[],"categories_sizes":[],"default_left":[0,0,0,0,0,0,0,0,0,0,0,0,0],"id":31,"left_children":[1,3,5,7,9,11,-1,-1,-1,-1,-1,-1,-1],"loss_changes":[7.409918E0,5.314911E0,2.7574978E0,1.0291235E1,4.0697584E0,1.7436619E0,0E0,0E0,0E0,0E0,0E0,0E0,0E0],"parents":[2147483647,0,0,1,1,2,2,3,3,4,4,5,5],"right_children":[2,4,6,8,10,12,-1,-1,-1,-1,-1,-1,-1],"split_conditions":[1.7204969E0,4E0,1.2537314E0,6E0,-4.6E-1,4E0,3.256835E-3,8.193971E-3,-1.0321013E-2,-1.368654E-2,-2.6583879E-3,-1.8982789E-2,-0E0],"split_indices":[17,3,18,2,40,9,0,0,0,0,0,0,0],"split_type":[0,0,0,0,0,0,0,0,0,0,0,0,0],"sum_hessian":[8.529641E2,7.0485986E2,1.4810423E2,3.235106E2,3.8134927E2,1.3537834E2,1.2725881E1,2.1245543E2,1.1105517E2,1.4090755E2,2.4044173E2,1.2628131E2,9.097036E0],"tree_param":{"num_deleted":"0","num_feature":"44","num_nodes":"13","size_leaf_vector":"1"}},{"base_weights":[1.0089836E-1,-9.361664E-2,4.6705353E-1,6.1543927E-2,-3.358473E-1,1.5932477E-1,5.9043044E-1,-1.3501734E-2,9.633529E-3,-2.1255963E-2,1.0763418E-3,1.875831E-2,-0E0,3.3130605E-2,1.4897382E-4],"categories":[],"categories_nodes":[],"categories_segments":[],"categories_sizes":[],"default_left":[0,0,0,0,0,0,0,0,0,0,0,0,0,0,0],"id":32,"left_children":[1,3,5,7,9,11,13,-1,-1,-1,-1,-1,-1,-1,-1],"loss_changes":[7.0541084E1,2.4499695E1,1.2007271E1,1.7118208E1,8.534607E0,3.334754E0,9.578308E0,0E0,0E0,0E0,0E0,0E0,0E0,0E0,0E0],"parents":[2147483647,0,0,1,1,2,2,3,3,4,4,5,5,6,6],"right_children":[2,4,6,8,10,12,14,-1,-1,-1,-1,-1,-1,-1,-1],"split_conditions":[6E0,5E0,1.25E0,3E0,5.0605845E-2,3.0357143E-1,6E0,-1.3501734E-2,9.633529E-3,-2.1255963E-2,1.0763418E-3,1.875831E-2,-0E0,3.3130605E-2,1.4897382E-4],"split_indices":[2,3,17,2,39,28,3,0,0,0,0,0,0,0,0],"split_type":[0,0,0,0,0,0,0,0,0,0,0,0,0,0,0],"sum_hessian":[9.8034515E2,6.399057E2,3.404394E2,3.889035E2,2.5100223E2,1.0171628E2,2.3872313E2,1.0715004E2,2.8175348E2,2.0261783E2,4.8384388E1,3.9578506E1,6.2137768E1,2.1074252E2,2.7980597E1],"tree_param":{"num_deleted":"0","num_feature":"44","num_nodes":"15","size_leaf_vector":"1"}},{"base_weights":[-2.3912921E-4,-2.1896803E-1,3.2659045E-1,-1.00415505E-1,-4.5907697E-1,5.016776E-1,5.473548E-2,-2.3420164E-2,-1.206803E-3,-2.5145007E-2,-3.0825895E-3,1.6459933E-2,3.493187E-2,8.881089E-3,-4.2307447E-3],"categories":[],"categories_nodes":[],"categories_segments":[],"categories_sizes":[],"default_left":[0,0,0,0,0,0,0,0,0,0,0,0,0,0,0],"id":33,"left_children":[1,3,5,7,9,11,13,-1,-1,-1,-1,-1,-1,-1,-1],"loss_changes":[6.505749E1,1.4899195E1,1.6669785E1,9.956006E0,2.4335747E0,5.707676E0,2.6734822E0,0E0,0E0,0E0,0E0,0E0,0E0,0E0,0E0],"parents":[2147483647,0,0,1,1,2,2,3,3,4,4,5,5,6,6],"right_children":[2,4,6,8,10,12,14,-1,-1,-1,-1,-1,-1,-1,-1],"split_conditions":[5E0,3.8707483E-1,-1.349332E-1,2E0,3E0,7E0,8E0,-2.3420164E-2,-1.206803E-3,-2.5145007E-2,-3.0825895E-3,1.6459933E-2,3.493187E-2,8.881089E-3,-4.2307447E-3],"split_indices":[3,40,40,3,8,3,24,0,0,0,0,0,0,0,0],"split_type":[0,0,0,0,0,0,0,0,0,0,0,0,0,0,0],"sum_hessian":[9.0556396E2,5.449254E2,3.6063858E2,3.704413E2,1.7448407E2,2.155803E2,1.4505826E2,5.8704952E1,3.1173636E2,1.5417154E2,2.0312529E1,1.21912315E2,9.3668E1,8.045827E1,6.459999E1],"tree_param":{"num_deleted":"0","num_feature":"44","num_nodes":"15","size_leaf_vector":"1"}},{"base_weights":[-1.0915058E-1,-7.287385E-2,-3.5333216E-1,-3.8534313E-2,-2.643334E-1,-0E0,-3.9789423E-1,6.18848E-4,-8.106007E-3,-1.634135E-2,6.7090946E-3,-0E0,-2.1410445E-2],"categories":[],"categories_nodes":[],"categories_segments":[],"categories_sizes":[],"default_left":[0,0,0,0,0,0,0,0,0,0,0,0,0],"id":34,"left_children":[1,3,5,7,9,-1,11,-1,-1,-1,-1,-1,-1],"loss_changes":[6.985017E0,4.554007E0,1.5993814E0,4.171671E0,3.0167022E0,0E0,7.180815E-1,0E0,0E0,0E0,0E0,0E0,0E0],"parents":[2147483647,0,0,1,1,2,2,3,3,4,4,6,6],"right_children":[2,4,6,8,10,-1,12,-1,-1,-1,-1,-1,-1],"split_conditions":[2.3188406E-1,7E0,2E0,2.64E2,1.5E1,-0E0,2.1E1,6.18848E-4,-8.106007E-3,-1.634135E-2,6.7090946E-3,-0E0,-2.1410445E-2],"split_indices":[39,3,42,43,4,0,12,0,0,0,0,0,0],"split_type":[0,0,0,0,0,0,0,0,0,0,0,0,0],"sum_hessian":[8.4238043E2,7.4037726E2,1.0200317E2,6.352651E2,1.05112175E2,1.2100368E1,8.99028E1,4.4610132E2,1.8916374E2,9.3499016E1,1.161316E1,8.772142E0,8.113066E1],"tree_param":{"num_deleted":"0","num_feature":"44","num_nodes":"13","size_leaf_vector":"1"}},{"base_weights":[9.614678E-2,-1.6305193E-1,3.5360068E-1,-5.4373695E-3,-3.5218897E-1,1.851023E-1,5.62023E-1,-1.899746E-2,2.9194078E-3,-5.2822833E-3,-2.0602863E-2,1.5367209E-2,-0E0,3.1434413E-2,-0E0],"categories":[],"categories_nodes":[],"categories_segments":[],"categories_sizes":[],"default_left":[0,0,0,0,0,0,0,0,0,0,0,0,0,0,0],"id":35,"left_children":[1,3,5,7,9,11,13,-1,-1,-1,-1,-1,-1,-1,-1],"loss_changes":[6.706963E1,1.4489477E1,1.6653957E1,7.026016E0,2.6511955E0,6.4608936E0,8.619675E0,0E0,0E0,0E0,0E0,0E0,0E0,0E0,0E0],"parents":[2147483647,0,0,1,1,2,2,3,3,4,4,5,5,6,6],"right_children":[2,4,6,8,10,12,14,-1,-1,-1,-1,-1,-1,-1,-1],"split_conditions":[5E0,1.4514768E0,4.5365855E-1,2E0,1.1603054E0,1.2E1,1.2E1,-1.899746E-2,2.9194078E-3,-5.2822833E-3,-2.0602863E-2,1.5367209E-2,-0E0,3.1434413E-2,-0E0],"split_indices":[2,26,19,2,18,1,6,0,0,0,0,0,0,0,0],"split_type":[0,0,0,0,0,0,0,0,0,0,0,0,0,0,0],"sum_hessian":[9.9661633E2,4.9523795E2,5.013784E2,2.746968E2,2.2054112E2,2.8302777E2,2.1835063E2,4.01159E1,2.3458092E2,4.7974556E1,1.7256657E2,1.6914638E2,1.13881386E2,1.957043E2,2.2646336E1],"tree_param":{"num_deleted":"0","num_feature":"44","num_nodes":"15","size_leaf_vector":"1"}},{"base_weights":[-0E0,-3.05026E-1,2.3495725E-1,-1.10425785E-1,-4.7645685E-1,3.654525E-1,-1.4684692E-1,-1.4364329E-2,5.3715925E-3,-6.615855E-4,-2.5815994E-2,1.2103035E-2,3.193916E-2,9.203619E-3,-1.1992514E-2],"categories":[],"categories_nodes":[],"categories_segments":[],"categories_sizes":[],"default_left":[0,0,0,0,0,0,0,0,0,0,0,0,0,0,0],"id":36,"left_children":[1,3,5,7,9,11,13,-1,-1,-1,-1,-1,-1,-1,-1],"loss_changes":[6.5039505E1,1.241293E1,2.5960146E1,7.645576E0,3.254776E0,1.1655357E1,4.219018E0,0E0,0E0,0E0,0E0,0E0,0E0,0E0,0E0],"parents":[2147483647,0,0,1,1,2,2,3,3,4,4,5,5,6,6],"right_children":[2,4,6,8,10,12,14,-1,-1,-1,-1,-1,-1,-1,-1],"split_conditions":[4E0,5E0,6E0,3E0,1E0,7E0,5E0,-1.4364329E-2,5.3715925E-3,-6.615855E-4,-2.5815994E-2,1.2103035E-2,3.193916E-2,9.203619E-3,-1.1992514E-2],"split_indices":[3,2,2,3,16,3,24,0,0,0,0,0,0,0,0],"split_type":[0,0,0,0,0,0,0,0,0,0,0,0,0,0,0],"sum_hessian":[9.018304E2,3.914083E2,5.1042206E2,1.8835841E2,2.0304988E2,3.8245276E2,1.2796929E2,1.0596676E2,8.2391655E1,1.8393335E1,1.8465656E2,2.6991727E2,1.1253549E2,2.5071478E1,1.0289781E2],"tree_param":{"num_deleted":"0","num_feature":"44","num_nodes":"15","size_leaf_vector":"1"}},{"base_weights":[-1.08505346E-1,-3.075093E-1,-6.1384283E-2,-3.873881E-1,-6.1894543E-2,-8.260944E-2,3.6022848E-1,-1.1294241E-2,-2.3630023E-2,1.1348573E-2,-9.821313E-3,1.693926E-3,-7.21882E-3,2.8320208E-2,-3.832249E-3],"categories":[],"categories_nodes":[],"categories_segments":[],"categories_sizes":[],"default_left":[0,0,0,0,0,0,0,0,0,0,0,0,0,0,0],"id":37,"left_children":[1,3,5,7,9,11,13,-1,-1,-1,-1,-1,-1,-1,-1],"loss_changes":[7.444353E0,2.5367584E0,5.953974E0,5.4973793E-1,1.8478266E0,4.8608847E0,3.430244E0,0E0,0E0,0E0,0E0,0E0,0E0,0E0,0E0],"parents":[2147483647,0,0,1,1,2,2,3,3,4,4,5,5,6,6],"right_children":[2,4,6,8,10,12,14,-1,-1,-1,-1,-1,-1,-1,-1],"split_conditions":[1.0344827E0,1.3E1,1.2E1,1.8461539E-1,1.0611111E0,6.4E1,1.5E0,-1.1294241E-2,-2.3630023E-2,1.1348573E-2,-9.821313E-3,1.693926E-3,-7.21882E-3,2.8320208E-2,-3.832249E-3],"split_indices":[18,5,6,39,26,21,18,0,0,0,0,0,0,0,0],"split_type":[0,0,0,0,0,0,0,0,0,0,0,0,0,0,0],"sum_hessian":[8.3624945E2,1.5286458E2,6.833849E2,1.1097139E2,4.189318E1,6.5518506E2,2.8199797E1,4.6164177E1,6.480721E1,1.0294439E1,3.1598742E1,2.2188705E2,4.33298E2,2.0109118E1,8.090679E0],"tree_param":{"num_deleted":"0","num_feature":"44","num_nodes":"15","size_leaf_vector":"1"}},{"base_weights":[1.0149737E-1,-1.6128236E-1,3.5070086E-1,-3.517804E-1,-3.0917281E-2,2.382374E-1,6.472384E-1,-2.137804E-2,-0E0,4.288764E-3,-1.07929325E-2,6.7907707E-3,2.6955584E-2,3.690435E-2,1.6947344E-2],"categories":[],"categories_nodes":[],"categories_segments":[],"categories_sizes":[],"default_left":[0,0,0,0,0,0,0,0,0,0,0,0,0,0,0],"id":38,"left_children":[1,3,5,7,9,11,13,-1,-1,-1,-1,-1,-1,-1,-1],"loss_changes":[6.4634315E1,1.1451653E1,1.5549183E1,5.258665E0,6.446479E0,1.0647371E1,1.957077E0,0E0,0E0,0E0,0E0,0E0,0E0,0E0,0E0],"parents":[2147483647,0,0,1,1,2,2,3,3,4,4,5,5,6,6],"right_children":[2,4,6,8,10,12,14,-1,-1,-1,-1,-1,-1,-1,-1],"split_conditions":[5E0,3E0,1.9639127E-1,1.5283018E0,1.4514768E0,8E0,1E1,-2.137804E-2,-0E0,4.288764E-3,-1.07929325E-2,6.7907707E-3,2.6955584E-2,3.690435E-2,1.6947344E-2],"split_indices":[2,2,39,27,26,2,6,0,0,0,0,0,0,0,0],"split_type":[0,0,0,0,0,0,0,0,0,0,0,0,0,0,0],"sum_hessian":[9.785162E2,4.7484644E2,5.0366974E2,1.8774095E2,2.871055E2,3.7154263E2,1.3212712E2,1.548854E2,3.2855537E1,1.7370454E2,1.1340096E2,2.8291284E2,8.86298E1,9.631775E1,3.5809364E1],"tree_param":{"num_deleted":"0","num_feature":"44","num_nodes":"15","size_leaf_vector":"1"}},{"base_weights":[-8.28864E-3,-3.0728674E-1,2.1670164E-1,-0E0,-3.8827017E-1,3.4902564E-1,-1.8128479E-1,1.2520084E-2,-6.773513E-3,1.0534721E-2,-2.081323E-2,2.414662E-2,4.319323E-3,6.6676936E-3,-1.3145928E-2],"categories":[],"categories_nodes":[],"categories_segments":[],"categories_sizes":[],"default_left":[0,0,0,0,0,0,0,0,0,0,0,0,0,0,0],"id":39,"left_children":[1,3,5,7,9,11,13,-1,-1,-1,-1,-1,-1,-1,-1],"loss_changes":[6.048197E1,1.0008514E1,2.7237642E1,2.9702964E0,5.64991E0,1.2879658E1,3.5082808E0,0E0,0E0,0E0,0E0,0E0,0E0,0E0,0E0],"parents":[2147483647,0,0,1,1,2,2,3,3,4,4,5,5,6,6],"right_children":[2,4,6,8,10,12,14,-1,-1,-1,-1,-1,-1,-1,-1],"split_conditions":[4E0,3E0,6E0,1.1981982E0,-2.6916867E-1,-7.311828E-2,-5.6772727E-1,1.2520084E-2,-6.773513E-3,1.0534721E-2,-2.081323E-2,2.414662E-2,4.319323E-3,6.6676936E-3,-1.3145928E-2],"split_indices":[3,2,2,27,39,40,40,0,0,0,0,0,0,0,0],"split_type":[0,0,0,0,0,0,0,0,0,0,0,0,0,0,0],"sum_hessian":[8.9175433E2,3.8433902E2,5.0741534E2,7.833799E1,3.06001E2,3.8296683E2,1.2444851E2,2.9075474E1,4.9262516E1,1.1194061E1,2.9480695E2,2.4945714E2,1.335097E2,2.2721846E1,1.0172667E2],"tree_param":{"num_deleted":"0","num_feature":"44","num_nodes":"15","size_leaf_vector":"1"}},{"base_weights":[-1.01218484E-1,-1.220305E-1,2.7506083E-1,-7.688308E-2,-2.823011E-1,4.5274884E-1,-7.0658214E-3,1.1034305E-3,-7.7256933E-3,2.2317471E-3,-2.1319978E-2,2.9536892E-2,-0E0],"categories":[],"categories_nodes":[],"categories_segments":[],"categories_sizes":[],"default_left":[0,0,0,0,0,0,0,0,0,0,0,0,0],"id":40,"left_children":[1,3,5,7,9,11,-1,-1,-1,-1,-1,-1,-1],"loss_changes":[6.4892664E0,5.3364773E0,3.6243958E0,4.983368E0,8.400102E0,2.143249E0,0E0,0E0,0E0,0E0,0E0,0E0,0E0],"parents":[2147483647,0,0,1,1,2,2,3,3,4,4,5,5],"right_children":[2,4,6,8,10,12,-1,-1,-1,-1,-1,-1,-1],"split_conditions":[1.2E1,7E0,6.5384614E-1,4E0,1.2346939E0,2.5E1,-7.0658214E-3,1.1034305E-3,-7.7256933E-3,2.2317471E-3,-2.1319978E-2,2.9536892E-2,-0E0],"split_indices":[6,2,40,3,17,0,0,0,0,0,0,0,0],"split_type":[0,0,0,0,0,0,0,0,0,0,0,0,0],"sum_hessian":[8.323327E2,7.931483E2,3.9184372E1,6.2715924E2,1.6598906E2,2.8963764E1,1.0220608E1,2.7099832E2,3.5616095E2,4.9289722E1,1.1669933E2,2.1916758E1,7.0470066E0],"tree_param":{"num_deleted":"0","num_feature":"44","num_nodes":"13","size_leaf_vector":"1"}},{"base_weights":[7.85838E-2,-1.03301354E-1,4.1250202E-1,2.1195209E-2,-3.331531E-1,5.645768E-1,1.7346871E-1,1.2694103E-2,-4.641053E-3,-1.8158391E-2,1.1430721E-2,3.005071E-2,-1.2265308E-3,-2.7310834E-3,1.4629911E-2],"categories":[],"categories_nodes":[],"categories_segments":[],"categories_sizes":[],"default_left":[0,0,0,0,0,0,0,0,0,0,0,0,0,0,0],"id":41,"left_children":[1,3,5,7,9,11,13,-1,-1,-1,-1,-1,-1,-1,-1],"loss_changes":[5.9466534E1,1.8351307E1,1.1518806E1,1.106753E1,4.164366E0,5.0668106E0,4.1209273E0,0E0,0E0,0E0,0E0,0E0,0E0,0E0,0E0],"parents":[2147483647,0,0,1,1,2,2,3,3,4,4,5,5,6,6],"right_children":[2,4,6,8,10,12,14,-1,-1,-1,-1,-1,-1,-1,-1],"split_conditions":[6E0,1.590164E0,4E0,3E0,2.009901E0,1.3E1,6E0,1.2694103E-2,-4.641053E-3,-1.8158391E-2,1.1430721E-2,3.005071E-2,-1.2265308E-3,-2.7310834E-3,1.4629911E-2],"split_indices":[2,26,3,3,17,6,24,0,0,0,0,0,0,0,0],"split_type":[0,0,0,0,0,0,0,0,0,0,0,0,0,0,0],"sum_hessian":[9.689227E2,6.2665894E2,3.4226376E2,4.0543335E2,2.212256E2,2.0412723E2,1.3813654E2,1.3500426E2,2.7042908E2,2.1270181E2,8.523796E0,1.9377852E2,1.0348715E1,4.507133E1,9.306521E1],"tree_param":{"num_deleted":"0","num_feature":"44","num_nodes":"15","size_leaf_vector":"1"}},{"base_weights":[-1.4953198E-2,-3.0594173E-1,2.0193188E-1,9.851379E-3,-3.844017E-1,5.6477237E-1,6.614884E-2,-1.942197E-2,6.2350594E-3,7.6210457E-3,-2.0649517E-2,3.139568E-2,8.091246E-4,2.0186886E-2,-1.1944378E-3],"categories":[],"categories_nodes":[],"categories_segments":[],"categories_sizes":[],"default_left":[0,0,0,0,0,0,0,0,0,0,0,0,0,0,0],"id":42,"left_children":[1,3,5,7,9,11,13,-1,-1,-1,-1,-1,-1,-1,-1],"loss_changes":[5.722101E1,1.000919E1,2.4713215E1,3.4350586E0,5.2639465E0,4.1159477E0,1.2001484E1,0E0,0E0,0E0,0E0,0E0,0E0,0E0,0E0],"parents":[2147483647,0,0,1,1,2,2,3,3,4,4,5,5,6,6],"right_children":[2,4,6,8,10,12,14,-1,-1,-1,-1,-1,-1,-1,-1],"split_conditions":[4E0,3E0,3E0,2E0,-7.878788E-1,1.5585586E0,-1.984127E-1,-1.942197E-2,6.2350594E-3,7.6210457E-3,-2.0649517E-2,3.139568E-2,8.091246E-4,2.0186886E-2,-1.1944378E-3],"split_indices":[3,2,2,3,40,27,39,0,0,0,0,0,0,0,0],"split_type":[0,0,0,0,0,0,0,0,0,0,0,0,0,0,0],"sum_hessian":[8.990868E2,3.853938E2,5.13693E2,7.4682526E1,3.1071127E2,1.3530013E2,3.7839285E2,1.3166968E1,6.151556E1,1.3284682E1,2.9742657E2,1.19311104E2,1.5989024E1,7.98091E1,2.9858377E2],"tree_param":{"num_deleted":"0","num_feature":"44","num_nodes":"15","size_leaf_vector":"1"}},{"base_weights":[-9.485955E-2,-5.7892628E-2,-3.2984337E-1,-2.3307277E-2,-2.4298277E-1,-4.0379632E-1,-5.2338343E-2,-2.3205483E-3,8.235495E-3,-1.7166061E-2,3.5354719E-3,-2.1541862E-2,-2.3559947E-4,6.647449E-3,-1.607509E-2],"categories":[],"categories_nodes":[],"categories_segments":[],"categories_sizes":[],"default_left":[0,0,0,0,0,0,0,0,0,0,0,0,0,0,0],"id":43,"left_children":[1,3,5,7,9,11,13,-1,-1,-1,-1,-1,-1,-1,-1],"loss_changes":[6.803341E0,4.3789787E0,1.7196541E0,2.604462E0,3.8012686E0,4.525442E-1,1.7755909E0,0E0,0E0,0E0,0E0,0E0,0E0,0E0,0E0],"parents":[2147483647,0,0,1,1,2,2,3,3,4,4,5,5,6,6],"right_children":[2,4,6,8,10,12,14,-1,-1,-1,-1,-1,-1,-1,-1],"split_conditions":[2.2276029E-1,7E0,1.3E1,1.1E1,1E0,1.2035398E0,8.4444445E-1,-2.3205483E-3,8.235495E-3,-1.7166061E-2,3.5354719E-3,-2.1541862E-2,-2.3559947E-4,6.647449E-3,-1.607509E-2],"split_indices":[39,3,5,13,36,18,40,0,0,0,0,0,0,0,0],"split_type":[0,0,0,0,0,0,0,0,0,0,0,0,0,0,0],"sum_hessian":[8.3142773E2,7.2531775E2,1.0610999E2,6.185231E2,1.06794685E2,7.985928E1,2.6250708E1,5.575848E2,6.0938305E1,8.311408E1,2.3680605E1,7.222133E1,7.637954E0,1.4246592E1,1.2004116E1],"tree_param":{"num_deleted":"0","num_feature":"44","num_nodes":"15","size_leaf_vector":"1"}},{"base_weights":[9.928076E-2,-1.4072776E-1,3.3219764E-1,2.9132986E-1,-1.9917017E-1,4.9958527E-1,1.0576135E-1,1.9164277E-2,-3.3178802E-3,-1.852815E-2,-4.0776823E-3,3.0598104E-2,1.0109435E-2,2.3515288E-2,1.2024724E-4],"categories":[],"categories_nodes":[],"categories_segments":[],"categories_sizes":[],"default_left":[0,0,0,0,0,0,0,0,0,0,0,0,0,0,0],"id":44,"left_children":[1,3,5,7,9,11,13,-1,-1,-1,-1,-1,-1,-1,-1],"loss_changes":[5.459272E1,1.2152596E1,1.802095E1,2.2396522E0,8.022631E0,8.226303E0,7.699778E0,0E0,0E0,0E0,0E0,0E0,0E0,0E0,0E0],"parents":[2147483647,0,0,1,1,2,2,3,3,4,4,5,5,6,6],"right_children":[2,4,6,8,10,12,14,-1,-1,-1,-1,-1,-1,-1,-1],"split_conditions":[5E0,2E0,4E0,1.8E1,3E0,9E0,1.0307692E0,1.9164277E-2,-3.3178802E-3,-1.852815E-2,-4.0776823E-3,3.0598104E-2,1.0109435E-2,2.3515288E-2,1.2024724E-4],"split_indices":[2,3,3,0,2,6,18,0,0,0,0,0,0,0,0],"split_type":[0,0,0,0,0,0,0,0,0,0,0,0,0,0,0],"sum_hessian":[9.6764453E2,4.7503754E2,4.92607E2,5.3136955E1,4.2190057E2,2.7861346E2,2.1399353E2,4.4323215E1,8.813742E0,1.6561278E2,2.5628778E2,1.974628E2,8.115068E1,4.277991E1,1.7121362E2],"tree_param":{"num_deleted":"0","num_feature":"44","num_nodes":"15","size_leaf_vector":"1"}},{"base_weights":[-9.586085E-3,-2.8941756E-1,1.9292037E-1,-2.76822E-2,-1.8971415E-1,3.102834E-1,-3.6346093E-2,1.1293248E-2,-1.2892202E-2,9.996644E-3,2.6996097E-2,-5.8557144E-3,1.02661485E-2],"categories":[],"categories_nodes":[],"categories_segments":[],"categories_sizes":[],"default_left":[0,0,0,0,0,0,0,0,0,0,0,0,0],"id":45,"left_children":[1,3,5,-1,7,9,11,-1,-1,-1,-1,-1,-1],"loss_changes":[5.081999E1,8.895353E0,1.4227308E1,0E0,8.180708E0,7.6879387E0,3.3988876E0,0E0,0E0,0E0,0E0,0E0,0E0],"parents":[2147483647,0,0,1,1,2,2,4,4,5,5,6,6],"right_children":[2,4,6,-1,8,10,12,-1,-1,-1,-1,-1,-1],"split_conditions":[4E0,2E0,3.5211267E-3,-2.76822E-2,-1.891253E-1,7E0,3E0,1.1293248E-2,-1.2892202E-2,9.996644E-3,2.6996097E-2,-5.8557144E-3,1.02661485E-2],"split_indices":[3,3,39,0,39,3,9,0,0,0,0,0,0],"split_type":[0,0,0,0,0,0,0,0,0,0,0,0,0],"sum_hessian":[8.891485E2,3.748359E2,5.1431256E2,9.620151E1,2.786344E2,3.4235858E2,1.71954E2,3.6199707E1,2.424347E2,2.3797073E2,1.0438785E2,1.33141E2,3.8812977E1],"tree_param":{"num_deleted":"0","num_feature":"44","num_nodes":"13","size_leaf_vector":"1"}},{"base_weights":[-8.589672E-2,-5.2640785E-2,-3.3030397E-1,-1.5536816E-2,-2.6463497E-1,-1.3903312E-1,-2.4501752E-2,-0E0,-1.7630385E-2,-1.6081842E-2,5.6221304E-3,9.419256E-4,-1.385874E-2],"categories":[],"categories_nodes":[],"categories_segments":[],"categories_sizes":[],"default_left":[0,0,0,0,0,0,0,0,0,0,0,0,0],"id":46,"left_children":[1,3,5,7,9,11,-1,-1,-1,-1,-1,-1,-1],"loss_changes":[6.365008E0,5.556487E0,2.100543E0,3.5542097E0,2.6080914E0,1.3805592E0,0E0,0E0,0E0,0E0,0E0,0E0,0E0],"parents":[2147483647,0,0,1,1,2,2,3,3,4,4,5,5],"right_children":[2,4,6,8,10,12,-1,-1,-1,-1,-1,-1,-1],"split_conditions":[6.984987E-1,7E0,7E0,2.6E0,1.5E1,5.377358E-1,-2.4501752E-2,-0E0,-1.7630385E-2,-1.6081842E-2,5.6221304E-3,9.419256E-4,-1.385874E-2],"split_indices":[40,3,2,34,4,19,0,0,0,0,0,0,0],"split_type":[0,0,0,0,0,0,0,0,0,0,0,0,0],"sum_hessian":[8.336291E2,7.405956E2,9.303346E1,6.3703625E2,1.0355935E2,4.7739414E1,4.529405E1,6.102072E2,2.6829037E1,9.264717E1,1.0912178E1,2.0109612E1,2.7629805E1],"tree_param":{"num_deleted":"0","num_feature":"44","num_nodes":"13","size_leaf_vector":"1"}},{"base_weights":[9.2478685E-2,-7.466229E-2,3.9695972E-1,-3.533876E-1,3.454117E-2,4.6350896E-1,-0E0,-1.985603E-2,8.058022E-3,-6.052771E-3,1.009588E-2,9.489294E-3,2.8720504E-2,-1.827587E-2,5.42804E-3],"categories":[],"categories_nodes":[],"categories_segments":[],"categories_sizes":[],"default_left":[0,0,0,0,0,0,0,0,0,0,0,0,0,0,0],"id":47,"left_children":[1,3,5,7,9,11,13,-1,-1,-1,-1,-1,-1,-1,-1],"loss_changes":[5.005468E1,1.9536718E1,9.632519E0,4.4839153E0,1.1950109E1,8.024773E0,2.3818905E0,0E0,0E0,0E0,0E0,0E0,0E0,0E0,0E0],"parents":[2147483647,0,0,1,1,2,2,3,3,4,4,5,5,6,6],"right_children":[2,4,6,8,10,12,14,-1,-1,-1,-1,-1,-1,-1,-1],"split_conditions":[6E0,3E0,6E0,1.8333334E0,-3.3995816E-3,1.2590674E0,1.0728155E0,-1.985603E-2,8.058022E-3,-6.052771E-3,1.009588E-2,9.489294E-3,2.8720504E-2,-1.827587E-2,5.42804E-3],"split_indices":[2,2,3,27,40,17,27,0,0,0,0,0,0,0,0],"split_type":[0,0,0,0,0,0,0,0,0,0,0,0,0,0,0],"sum_hessian":[9.724813E2,6.271793E2,3.45302E2,1.7724284E2,4.499365E2,2.9730136E2,4.8000645E1,1.6578073E2,1.1462104E1,2.3050757E2,2.1942891E2,9.066804E1,2.0663332E2,1.1328556E1,3.667209E1],"tree_param":{"num_deleted":"0","num_feature":"44","num_nodes":"15","size_leaf_vector":"1"}},{"base_weights":[1.7958261E-3,-1.9259278E-1,2.7398753E-1,1.3785218E-1,-2.8740633E-1,4.7269517E-1,7.869375E-2,-1.6500656E-2,1.1005491E-2,3.6065571E-3,-1.764812E-2,2.5646439E-2,-0E0,1.7538127E-2,-8.5479533E-4],"categories":[],"categories_nodes":[],"categories_segments":[],"categories_sizes":[],"default_left":[0,0,0,0,0,0,0,0,0,0,0,0,0,0,0],"id":48,"left_children":[1,3,5,7,9,11,13,-1,-1,-1,-1,-1,-1,-1,-1],"loss_changes":[4.7484295E1,1.6576618E1,1.3904472E1,4.5618787E0,9.9687805E0,3.5420723E0,5.445554E0,0E0,0E0,0E0,0E0,0E0,0E0,0E0,0E0],"parents":[2147483647,0,0,1,1,2,2,3,3,4,4,5,5,6,6],"right_children":[2,4,6,8,10,12,14,-1,-1,-1,-1,-1,-1,-1,-1],"split_conditions":[5E0,3E0,4E0,2E0,-4.565005E-1,1.95E2,1.097561E0,-1.6500656E-2,1.1005491E-2,3.6065571E-3,-1.764812E-2,2.5646439E-2,-0E0,1.7538127E-2,-8.5479533E-4],"split_indices":[3,2,2,3,40,12,27,0,0,0,0,0,0,0,0],"split_type":[0,0,0,0,0,0,0,0,0,0,0,0,0,0,0],"sum_hessian":[8.899075E2,5.175191E2,3.7238837E2,1.1272839E2,4.047907E2,1.7993065E2,1.9245773E2,1.3686954E1,9.904144E1,6.002621E1,3.447645E2,1.658214E2,1.4109248E1,5.075469E1,1.4170303E2],"tree_param":{"num_deleted":"0","num_feature":"44","num_nodes":"15","size_leaf_vector":"1"}},{"base_weights":[-8.011542E-2,-5.0252248E-2,-3.0092183E-1,-7.099225E-2,3.4401754E-1,-1.1808521E-1,-4.5921305E-1,-1.1180616E-2,-1.5969145E-3,-0E0,2.6126308E-2,1.4321058E-3,-1.3007234E-2,-2.5251156E-2,-2.1569892E-3],"categories":[],"categories_nodes":[],"categories_segments":[],"categories_sizes":[],"default_left":[0,0,0,0,0,0,0,0,0,0,0,0,0,0,0],"id":49,"left_children":[1,3,5,7,9,11,13,-1,-1,-1,-1,-1,-1,-1,-1],"loss_changes":[5.0864387E0,5.8516865E0,1.994132E0,3.9427352E0,2.1161094E0,1.3128643E0,2.7590847E-1,0E0,0E0,0E0,0E0,0E0,0E0,0E0,0E0],"parents":[2147483647,0,0,1,1,2,2,3,3,4,4,5,5,6,6],"right_children":[2,4,6,8,10,12,14,-1,-1,-1,-1,-1,-1,-1,-1],"split_conditions":[6.984987E-1,1.2E1,7E0,1E0,3.448276E-1,1.9137931E0,3.19E2,-1.1180616E-2,-1.5969145E-3,-0E0,2.6126308E-2,1.4321058E-3,-1.3007234E-2,-2.5251156E-2,-2.1569892E-3],"split_indices":[40,6,2,8,19,20,43,0,0,0,0,0,0,0,0],"split_type":[0,0,0,0,0,0,0,0,0,0,0,0,0,0,0],"sum_hessian":[8.285128E2,7.370424E2,9.14704E1,7.049554E2,3.2087036E1,4.7806393E1,4.3664005E1,1.3553024E2,5.694252E2,1.2127982E1,1.9959053E1,2.123228E1,2.6574112E1,3.6590576E1,7.0734315E0],"tree_param":{"num_deleted":"0","num_feature":"44","num_nodes":"15","size_leaf_vector":"1"}},{"base_weights":[7.1376376E-2,-1.2800814E-1,2.713956E-1,2.0369267E-2,-3.1352213E-1,4.7074175E-1,1.2779744E-1,-3.6108696E-3,9.724548E-3,-1.7516986E-2,1.5001433E-2,2.8680613E-2,9.585994E-3,9.986465E-3,-7.418573E-3],"categories":[],"categories_nodes":[],"categories_segments":[],"categories_sizes":[],"default_left":[0,0,0,0,0,0,0,0,0,0,0,0,0,0,0],"id":50,"left_children":[1,3,5,7,9,11,13,-1,-1,-1,-1,-1,-1,-1,-1],"loss_changes":[3.9238846E1,1.377696E1,1.329158E1,4.5430455E0,5.3478603E0,4.6965523E0,5.955908E0,0E0,0E0,0E0,0E0,0E0,0E0,0E0,0E0],"parents":[2147483647,0,0,1,1,2,2,3,3,4,4,5,5,6,6],"right_children":[2,4,6,8,10,12,14,-1,-1,-1,-1,-1,-1,-1,-1],"split_conditions":[1.3513514E-2,5E0,3E0,1E0,1E0,9E0,3E0,-3.6108696E-3,9.724548E-3,-1.7516986E-2,1.5001433E-2,2.8680613E-2,9.585994E-3,9.986465E-3,-7.418573E-3],"split_indices":[40,3,3,38,11,6,8,0,0,0,0,0,0,0,0],"split_type":[0,0,0,0,0,0,0,0,0,0,0,0,0,0,0],"sum_hessian":[9.746961E2,4.8615967E2,4.8853647E2,2.6860486E2,2.1755481E2,1.98783E2,2.8975345E2,1.7275665E2,9.584819E1,2.0799068E2,9.564131E0,1.4030402E2,5.8478992E1,2.3341003E2,5.6343422E1],"tree_param":{"num_deleted":"0","num_feature":"44","num_nodes":"15","size_leaf_vector":"1"}},{"base_weights":[-3.1424167E-3,-2.0692998E-1,2.872825E-1,-3.912576E-2,-3.3510894E-1,4.9218518E-1,1.6385393E-1,-2.0181458E-2,9.3673187E-4,-1.9502712E-2,-3.2521875E-3,2.6319796E-2,-0E0,2.7416237E-3,1.8218756E-2],"categories":[],"categories_nodes":[],"categories_segments":[],"categories_sizes":[],"default_left":[0,0,0,0,0,0,0,0,0,0,0,0,0,0,0],"id":51,"left_children":[1,3,5,7,9,11,13,-1,-1,-1,-1,-1,-1,-1,-1],"loss_changes":[5.221404E1,1.0797577E1,8.265673E0,5.3110857E0,3.7977295E0,2.5708046E0,4.6290026E0,0E0,0E0,0E0,0E0,0E0,0E0,0E0,0E0],"parents":[2147483647,0,0,1,1,2,2,3,3,4,4,5,5,6,6],"right_children":[2,4,6,8,10,12,14,-1,-1,-1,-1,-1,-1,-1,-1],"split_conditions":[5E0,-3.3995816E-3,-4.7878787E-1,2E0,3E0,4E0,7E0,-2.0181458E-2,9.3673187E-4,-1.9502712E-2,-3.2521875E-3,2.6319796E-2,-0E0,2.7416237E-3,1.8218756E-2],"split_indices":[3,40,40,3,8,9,3,0,0,0,0,0,0,0,0],"split_type":[0,0,0,0,0,0,0,0,0,0,0,0,0,0,0],"sum_hessian":[8.775619E2,5.182312E2,3.593307E2,2.295004E2,2.8873083E2,1.2866702E2,2.3066367E2,3.1351355E1,1.9814903E2,2.357345E2,5.2996338E1,1.2138671E2,7.2803206E0,1.551289E2,7.553475E1],"tree_param":{"num_deleted":"0","num_feature":"44","num_nodes":"15","size_leaf_vector":"1"}},{"base_weights":[-8.8717856E-2,-6.530485E-2,-3.6376435E-1,-9.3858145E-2,1.6638929E-1,-2.06501E-2,-0E0,4.246287E-4,-7.4887197E-3,1.4200923E-2,-9.111206E-3],"categories":[],"categories_nodes":[],"categories_segments":[],"categories_sizes":[],"default_left":[0,0,0,0,0,0,0,0,0,0,0],"id":52,"left_children":[1,3,5,7,9,-1,-1,-1,-1,-1,-1],"loss_changes":[4.8372297E0,5.073938E0,8.6812496E-1,4.105634E0,3.6119869E0,0E0,0E0,0E0,0E0,0E0,0E0],"parents":[2147483647,0,0,1,1,2,2,3,3,4,4],"right_children":[2,4,6,8,10,-1,-1,-1,-1,-1,-1],"split_conditions":[8.4444445E-1,2.1E1,1.56E2,6.4E1,1E1,-2.06501E-2,-0E0,4.246287E-4,-7.4887197E-3,1.4200923E-2,-9.111206E-3],"split_indices":[40,0,21,21,2,0,0,0,0,0,0],"split_type":[0,0,0,0,0,0,0,0,0,0,0],"sum_hessian":[8.258576E2,7.678439E2,5.801374E1,6.890306E2,7.881332E1,4.9422493E1,8.591247E0,2.3801727E2,4.510133E2,6.14898E1,1.7323517E1],"tree_param":{"num_deleted":"0","num_feature":"44","num_nodes":"11","size_leaf_vector":"1"}},{"base_weights":[7.156889E-2,-1.591118E-1,2.949071E-1,-2.2369722E-2,-3.3477077E-1,1.4313906E-1,4.627034E-1,-1.2466791E-2,4.503054E-3,-2.0719578E-2,-5.721102E-3,2.0418433E-2,-0E0,1.31682595E-2,2.9276565E-2],"categories":[],"categories_nodes":[],"categories_segments":[],"categories_sizes":[],"default_left":[0,0,0,0,0,0,0,0,0,0,0,0,0,0,0],"id":53,"left_children":[1,3,5,7,9,11,13,-1,-1,-1,-1,-1,-1,-1,-1],"loss_changes":[5.03043E1,1.10878525E1,1.18425865E1,7.2404914E0,2.9352589E0,9.988005E0,4.353775E0,0E0,0E0,0E0,0E0,0E0,0E0,0E0,0E0],"parents":[2147483647,0,0,1,1,2,2,3,3,4,4,5,5,6,6],"right_children":[2,4,6,8,10,12,14,-1,-1,-1,-1,-1,-1,-1,-1],"split_conditions":[5E0,1.4514768E0,7E0,3E0,2.65E2,5E0,5.5555556E-2,-1.2466791E-2,4.503054E-3,-2.0719578E-2,-5.721102E-3,2.0418433E-2,-0E0,1.31682595E-2,2.9276565E-2],"split_indices":[2,26,2,2,43,6,39,0,0,0,0,0,0,0,0],"split_type":[0,0,0,0,0,0,0,0,0,0,0,0,0,0,0],"sum_hessian":[9.680389E2,4.744136E2,4.9362527E2,2.7185916E2,2.0255443E2,2.652402E2,2.2838507E2,9.179409E1,1.8006508E2,1.4351617E2,5.903825E1,8.984877E1,1.7539143E2,9.377348E1,1.3461159E2],"tree_param":{"num_deleted":"0","num_feature":"44","num_nodes":"15","size_leaf_vector":"1"}},{"base_weights":[2.2270356E-3,-2.601686E-1,1.9264928E-1,-9.081278E-2,-4.2605242E-1,5.2722716E-1,6.038445E-2,-2.040437E-2,-0E0,2.165914E-3,-2.2549793E-2,2.9136753E-2,2.3282925E-3,-1.4310542E-3,1.5775258E-2],"categories":[],"categories_nodes":[],"categories_segments":[],"categories_sizes":[],"default_left":[0,0,0,0,0,0,0,0,0,0,0,0,0,0,0],"id":54,"left_children":[1,3,5,7,9,11,13,-1,-1,-1,-1,-1,-1,-1,-1],"loss_changes":[4.4522453E1,9.848248E0,2.2298006E1,5.4674616E0,2.6284447E0,3.147316E0,8.890761E0,0E0,0E0,0E0,0E0,0E0,0E0,0E0,0E0],"parents":[2147483647,0,0,1,1,2,2,3,3,4,4,5,5,6,6],"right_children":[2,4,6,8,10,12,14,-1,-1,-1,-1,-1,-1,-1,-1],"split_conditions":[4E0,5E0,3E0,2E0,2E0,1.5585586E0,7E0,-2.040437E-2,-0E0,2.165914E-3,-2.2549793E-2,2.9136753E-2,2.3282925E-3,-1.4310542E-3,1.5775258E-2],"split_indices":[3,2,2,3,13,27,3,0,0,0,0,0,0,0,0],"split_type":[0,0,0,0,0,0,0,0,0,0,0,0,0,0,0],"sum_hessian":[8.8639746E2,3.7008377E2,5.163137E2,1.8840549E2,1.8167828E2,1.4160071E2,3.74713E2,3.9309193E1,1.490963E2,7.0330944E0,1.7464519E2,1.2450502E2,1.7095678E1,2.768651E2,9.784791E1],"tree_param":{"num_deleted":"0","num_feature":"44","num_nodes":"15","size_leaf_vector":"1"}},{"base_weights":[-7.429367E-2,-1.2216715E-1,6.424399E-2,-1.7483385E-2,-1.842747E-1,2.6914585E-2,2.2410423E-2,1.0563704E-3,-1.987235E-2,-0E0,-1.1421458E-2,-1.489333E-3,1.3475716E-2],"categories":[],"categories_nodes":[],"categories_segments":[],"categories_sizes":[],"default_left":[0,0,0,0,0,0,0,0,0,0,0,0,0],"id":55,"left_children":[1,3,5,7,9,-1,11,-1,-1,-1,-1,-1,-1],"loss_changes":[5.518386E0,3.7912197E0,3.5107477E0,3.9012349E0,2.871622E0,0E0,2.7841437E0,0E0,0E0,0E0,0E0,0E0,0E0],"parents":[2147483647,0,0,1,1,2,2,3,3,4,4,6,6],"right_children":[2,4,6,8,10,-1,12,-1,-1,-1,-1,-1,-1],"split_conditions":[1.3E1,6.4E1,1E0,8.4444445E-1,1.0854701E0,2.6914585E-2,1.8152866E0,1.0563704E-3,-1.987235E-2,-0E0,-1.1421458E-2,-1.489333E-3,1.3475716E-2],"split_indices":[4,21,42,40,26,0,29,0,0,0,0,0,0],"split_type":[0,0,0,0,0,0,0,0,0,0,0,0,0],"sum_hessian":[8.167661E2,6.1263495E2,2.0413115E2,2.3555202E2,3.7708295E2,1.1727812E1,1.9240334E2,2.1400664E2,2.1545374E1,7.770277E1,2.993802E2,1.5768597E2,3.471736E1],"tree_param":{"num_deleted":"0","num_feature":"44","num_nodes":"13","size_leaf_vector":"1"}},{"base_weights":[6.940572E-2,-8.282338E-2,3.5010862E-1,1.5780361E-1,-1.7650868E-1,4.8626244E-1,1.4452308E-1,-1.595209E-3,1.6131131E-2,-1.9187918E-2,-4.0135663E-3,2.683045E-2,-2.5084065E-4,1.3639046E-3,2.3992559E-2],"categories":[],"categories_nodes":[],"categories_segments":[],"categories_sizes":[],"default_left":[0,0,0,0,0,0,0,0,0,0,0,0,0,0,0],"id":56,"left_children":[1,3,5,7,9,11,13,-1,-1,-1,-1,-1,-1,-1,-1],"loss_changes":[4.15518E1,1.4196785E1,8.728245E0,5.755897E0,8.507071E0,5.523117E0,5.091756E0,0E0,0E0,0E0,0E0,0E0,0E0,0E0,0E0],"parents":[2147483647,0,0,1,1,2,2,3,3,4,4,5,5,6,6],"right_children":[2,4,6,8,10,12,14,-1,-1,-1,-1,-1,-1,-1,-1],"split_conditions":[6E0,3E0,4E0,1E0,3E0,1.2E1,9E0,-1.595209E-3,1.6131131E-2,-1.9187918E-2,-4.0135663E-3,2.683045E-2,-2.5084065E-4,1.3639046E-3,2.3992559E-2],"split_indices":[2,3,3,38,2,6,2,0,0,0,0,0,0,0,0],"split_type":[0,0,0,0,0,0,0,0,0,0,0,0,0,0,0],"sum_hessian":[9.611098E2,6.222223E2,3.3888748E2,1.7080057E2,4.5142175E2,1.9847974E2,1.4040775E2,7.7709E1,9.309156E1,1.3701103E2,3.144107E2,1.8162537E2,1.685437E1,1.086465E2,3.176125E1],"tree_param":{"num_deleted":"0","num_feature":"44","num_nodes":"15","size_leaf_vector":"1"}},{"base_weights":[-8.824989E-3,-1.927534E-1,2.4716403E-1,-3.2797422E-2,-3.669633E-1,3.9055124E-1,-0E0,-2.1526672E-2,1.70861E-3,3.173419E-3,-2.0293336E-2,8.170247E-3,2.5353996E-2,3.3089486E-3,-2.463625E-2],"categories":[],"categories_nodes":[],"categories_segments":[],"categories_sizes":[],"default_left":[0,0,0,0,0,0,0,0,0,0,0,0,0,0,0],"id":57,"left_children":[1,3,5,7,9,11,13,-1,-1,-1,-1,-1,-1,-1,-1],"loss_changes":[4.1922993E1,1.4081911E1,1.3142042E1,7.8424897E0,4.5406075E0,5.2895317E0,4.64073E0,0E0,0E0,0E0,0E0,0E0,0E0,0E0,0E0],"parents":[2147483647,0,0,1,1,2,2,3,3,4,4,5,5,6,6],"right_children":[2,4,6,8,10,12,14,-1,-1,-1,-1,-1,-1,-1,-1],"split_conditions":[5E0,5E0,5E0,2E0,-6.184211E-1,1.3661972E0,9E0,-2.1526672E-2,1.70861E-3,3.173419E-3,-2.0293336E-2,8.170247E-3,2.5353996E-2,3.3089486E-3,-2.463625E-2],"split_indices":[3,2,2,3,40,26,2,0,0,0,0,0,0,0,0],"split_type":[0,0,0,0,0,0,0,0,0,0,0,0,0,0,0],"sum_hessian":[8.8551385E2,5.1798706E2,3.6752682E2,2.7489188E2,2.4309517E2,2.3156032E2,1.3596652E2,3.942004E1,2.3547185E2,1.786259E1,2.2523257E2,8.386766E1,1.4769264E2,1.2210832E2,1.3858199E1],"tree_param":{"num_deleted":"0","num_feature":"44","num_nodes":"15","size_leaf_vector":"1"}},{"base_weights":[-6.917026E-2,-4.4745862E-2,-3.5667026E-1,-6.882638E-2,2.4535084E-1,-2.0175403E-2,-0E0,-5.731946E-3,2.6633085E-3,-0E0,2.0427724E-2],"categories":[],"categories_nodes":[],"categories_segments":[],"categories_sizes":[],"default_left":[0,0,0,0,0,0,0,0,0,0,0],"id":58,"left_children":[1,3,5,7,9,-1,-1,-1,-1,-1,-1],"loss_changes":[5.2799454E0,5.173797E0,6.93203E-1,4.02875E0,2.5211005E0,0E0,0E0,0E0,0E0,0E0,0E0],"parents":[2147483647,0,0,1,1,2,2,3,3,4,4],"right_children":[2,4,6,8,10,-1,-1,-1,-1,-1,-1],"split_conditions":[8.4444445E-1,1.1E1,1.5E1,1.3E1,2.9850745E-1,-2.0175403E-2,-0E0,-5.731946E-3,2.6633085E-3,-0E0,2.0427724E-2],"split_indices":[40,6,14,4,28,0,0,0,0,0,0],"split_type":[0,0,0,0,0,0,0,0,0,0,0],"sum_hessian":[8.12897E2,7.556466E2,5.7250347E1,7.0302484E2,5.262174E1,4.833235E1,8.9179945E0,5.17295E2,1.8572987E2,2.045832E1,3.2163414E1],"tree_param":{"num_deleted":"0","num_feature":"44","num_nodes":"11","size_leaf_vector":"1"}},{"base_weights":[6.0869202E-2,-1.586065E-1,2.7477416E-1,2.2743642E-1,-2.0969467E-1,3.7828684E-1,9.570904E-3,1.6549286E-2,-5.2946843E-3,-1.2355631E-2,8.039351E-3,2.1029329E-2,-2.6355714E-3,2.0527292E-2,-4.929839E-3],"categories":[],"categories_nodes":[],"categories_segments":[],"categories_sizes":[],"default_left":[0,0,0,0,0,0,0,0,0,0,0,0,0,0,0],"id":59,"left_children":[1,3,5,7,9,11,13,-1,-1,-1,-1,-1,-1,-1,-1],"loss_changes":[4.5802673E1,9.56324E0,1.3185181E1,2.2313633E0,6.117426E0,6.872135E0,6.709668E0,0E0,0E0,0E0,0E0,0E0,0E0,0E0,0E0],"parents":[2147483647,0,0,1,1,2,2,3,3,4,4,5,5,6,6],"right_children":[2,4,6,8,10,12,14,-1,-1,-1,-1,-1,-1,-1,-1],"split_conditions":[5E0,2E0,5E0,1.5714285E0,1.688E0,1.2E1,1.0833334E0,1.6549286E-2,-5.2946843E-3,-1.2355631E-2,8.039351E-3,2.1029329E-2,-2.6355714E-3,2.0527292E-2,-4.929839E-3],"split_indices":[2,3,3,29,27,6,18,0,0,0,0,0,0,0,0],"split_type":[0,0,0,0,0,0,0,0,0,0,0,0,0,0,0],"sum_hessian":[9.67367E2,4.7554153E2,4.9182547E2,5.2079346E1,4.234622E2,3.5011905E2,1.4170644E2,4.2040546E1,1.00388E1,3.8797556E2,3.548662E1,3.2100693E2,2.9112114E1,3.0288021E1,1.1141841E2],"tree_param":{"num_deleted":"0","num_feature":"44","num_nodes":"15","size_leaf_vector":"1"}},{"base_weights":[-6.6648354E-3,-2.575463E-1,1.7092706E-1,5.2905332E-2,-3.4599248E-1,4.6666825E-1,5.441976E-2,9.913411E-3,-1.2518433E-2,6.715346E-3,-1.8731307E-2,2.5963277E-2,2.997188E-4,-1.2625124E-3,1.5058376E-2],"categories":[],"categories_nodes":[],"categories_segments":[],"categories_sizes":[],"default_left":[0,0,0,0,0,0,0,0,0,0,0,0,0,0,0],"id":60,"left_children":[1,3,5,7,9,11,13,-1,-1,-1,-1,-1,-1,-1,-1],"loss_changes":[3.9592773E1,1.0502472E1,1.7213505E1,3.715868E0,4.3894844E0,2.9367504E0,7.703031E0,0E0,0E0,0E0,0E0,0E0,0E0,0E0,0E0],"parents":[2147483647,0,0,1,1,2,2,3,3,4,4,5,5,6,6],"right_children":[2,4,6,8,10,12,14,-1,-1,-1,-1,-1,-1,-1,-1],"split_conditions":[4E0,3E0,3E0,1.4659091E0,-7.878788E-1,1.5585586E0,7E0,9.913411E-3,-1.2518433E-2,6.715346E-3,-1.8731307E-2,2.5963277E-2,2.997188E-4,-1.2625124E-3,1.5058376E-2],"split_indices":[3,2,2,27,40,27,3,0,0,0,0,0,0,0,0],"split_type":[0,0,0,0,0,0,0,0,0,0,0,0,0,0,0],"sum_hessian":[8.8072845E2,3.6681482E2,5.1391364E2,7.909291E1,2.877219E2,1.4026543E2,3.736482E2,5.639715E1,2.2695765E1,1.3600044E1,2.7412186E2,1.2360103E2,1.6664394E1,2.8142264E2,9.222556E1],"tree_param":{"num_deleted":"0","num_feature":"44","num_nodes":"15","size_leaf_vector":"1"}},{"base_weights":[-6.80485E-2,-2.3638988E-1,-2.8956462E-2,1.0657685E-3,-2.6505968E-1,-5.5600703E-2,2.742315E-1,-2.2243746E-2,-8.457779E-3,2.6990527E-3,-5.6765173E-3,-0E0,2.0356242E-2],"categories":[],"categories_nodes":[],"categories_segments":[],"categories_sizes":[],"default_left":[0,0,0,0,0,0,0,0,0,0,0,0,0],"id":61,"left_children":[1,3,5,-1,7,9,11,-1,-1,-1,-1,-1,-1],"loss_changes":[5.104068E0,1.3623972E0,5.2631626E0,0E0,1.5383072E0,4.039701E0,2.114308E0,0E0,0E0,0E0,0E0,0E0,0E0],"parents":[2147483647,0,0,1,1,2,2,4,4,5,5,6,6],"right_children":[2,4,6,-1,8,10,12,-1,-1,-1,-1,-1,-1],"split_conditions":[1.0375E0,7.966102E-1,2.2E1,1.0657685E-3,8.7628865E-1,6.4E1,2.8037384E-1,-2.2243746E-2,-8.457779E-3,2.6990527E-3,-5.6765173E-3,-0E0,2.0356242E-2],"split_indices":[18,18,0,0,18,21,28,0,0,0,0,0,0],"split_type":[0,0,0,0,0,0,0,0,0,0,0,0,0],"sum_hessian":[8.1604083E2,1.4611343E2,6.699274E2,1.1212939E1,1.349005E2,6.210937E2,4.8833763E1,3.9498848E1,9.540164E1,2.0889073E2,4.1220294E2,1.55602455E1,3.3273518E1],"tree_param":{"num_deleted":"0","num_feature":"44","num_nodes":"13","size_leaf_vector":"1"}},{"base_weights":[6.051561E-2,-1.4935714E-1,2.6046035E-1,-3.3083528E-1,-3.6039367E-2,4.058508E-1,8.143287E-2,-1.9206807E-2,4.166772E-3,3.5359978E-3,-1.05042225E-2,2.529031E-2,-0E0,-2.1036714E-4,1.989424E-2],"categories":[],"categories_nodes":[],"categories_segments":[],"categories_sizes":[],"default_left":[0,0,0,0,0,0,0,0,0,0,0,0,0,0,0],"id":62,"left_children":[1,3,5,7,9,11,13,-1,-1,-1,-1,-1,-1,-1,-1],"loss_changes":[4.071786E1,9.267473E0,1.236739E1,4.3041E0,5.6882544E0,1.088208E1,6.628426E0,0E0,0E0,0E0,0E0,0E0,0E0,0E0,0E0],"parents":[2147483647,0,0,1,1,2,2,3,3,4,4,5,5,6,6],"right_children":[2,4,6,8,10,12,14,-1,-1,-1,-1,-1,-1,-1,-1],"split_conditions":[5E0,3E0,4E0,1.688E0,1.4514768E0,1E1,5.3333336E-1,-1.9206807E-2,4.166772E-3,3.5359978E-3,-1.05042225E-2,2.529031E-2,-0E0,-2.1036714E-4,1.989424E-2],"split_indices":[2,2,3,27,26,6,40,0,0,0,0,0,0,0,0],"split_type":[0,0,0,0,0,0,0,0,0,0,0,0,0,0,0],"sum_hessian":[9.6189996E2,4.67229E2,4.94671E2,1.7399425E2,2.9323474E2,2.6780035E2,2.2687062E2,1.5648744E2,1.7506805E1,1.792922E2,1.1394255E2,2.138814E2,5.391896E1,1.7839288E2,4.847773E1],"tree_param":{"num_deleted":"0","num_feature":"44","num_nodes":"15","size_leaf_vector":"1"}},{"base_weights":[6.3261245E-3,-1.6655405E-1,2.5362954E-1,1.4055854E-1,-2.6143706E-1,3.4018412E-1,-4.5986097E-2,1.1595613E-2,-1.3153079E-2,-2.0896079E-2,-6.5720044E-3,7.445062E-3,2.2253811E-2,1.0854887E-2,-7.1716653E-3],"categories":[],"categories_nodes":[],"categories_segments":[],"categories_sizes":[],"default_left":[0,0,0,0,0,0,0,0,0,0,0,0,0,0,0],"id":63,"left_children":[1,3,5,7,9,11,13,-1,-1,-1,-1,-1,-1,-1,-1],"loss_changes":[3.7388416E1,1.5126962E1,9.71121E0,4.5809126E0,7.302166E0,4.8909454E0,2.09729E0,0E0,0E0,0E0,0E0,0E0,0E0,0E0,0E0],"parents":[2147483647,0,0,1,1,2,2,3,3,4,4,5,5,6,6],"right_children":[2,4,6,8,10,12,14,-1,-1,-1,-1,-1,-1,-1,-1],"split_conditions":[5E0,3E0,6E0,1.4885917E-1,3E0,1.3723404E0,5E0,1.1595613E-2,-1.3153079E-2,-2.0896079E-2,-6.5720044E-3,7.445062E-3,2.2253811E-2,1.0854887E-2,-7.1716653E-3],"split_indices":[3,2,2,39,3,26,24,0,0,0,0,0,0,0,0],"split_type":[0,0,0,0,0,0,0,0,0,0,0,0,0,0,0],"sum_hessian":[8.665032E2,5.0818607E2,3.5831714E2,1.17118675E2,3.9106738E2,2.802798E2,7.803735E1,9.856395E1,1.8554726E1,1.7094926E2,2.201181E2,1.0520981E2,1.7506998E2,1.7323256E1,6.0714104E1],"tree_param":{"num_deleted":"0","num_feature":"44","num_nodes":"15","size_leaf_vector":"1"}},{"base_weights":[-7.781308E-2,-2.4261874E-1,-3.2452926E-2,-1.4996251E-1,-4.655099E-1,-1.1358524E-3,-2.812478E-1,3.7938661E-3,-1.3147025E-2,-0E0,-2.6632462E-2,3.1121213E-3,-5.3339046E-3,-1.9364137E-2,2.0768356E-3],"categories":[],"categories_nodes":[],"categories_segments":[],"categories_sizes":[],"default_left":[0,0,0,0,0,0,0,0,0,0,0,0,0,0,0],"id":64,"left_children":[1,3,5,7,9,11,13,-1,-1,-1,-1,-1,-1,-1,-1],"loss_changes":[5.753456E0,2.6759005E0,4.727187E0,3.4957776E0,1.0062923E0,3.9290364E0,2.7321768E0,0E0,0E0,0E0,0E0,0E0,0E0,0E0,0E0],"parents":[2147483647,0,0,1,1,2,2,3,3,4,4,5,5,6,6],"right_children":[2,4,6,8,10,12,14,-1,-1,-1,-1,-1,-1,-1,-1],"split_conditions":[1E0,7E0,2.2276029E-1,1.0833334E0,1.2619047E0,5E0,1E1,3.7938661E-3,-1.3147025E-2,-0E0,-2.6632462E-2,3.1121213E-3,-5.3339046E-3,-1.9364137E-2,2.0768356E-3],"split_indices":[8,2,39,26,17,3,6,0,0,0,0,0,0,0,0],"split_type":[0,0,0,0,0,0,0,0,0,0,0,0,0,0,0],"sum_hessian":[8.065859E2,1.665118E2,6.400741E2,1.2433178E2,4.218002E1,5.747593E2,6.53148E1,3.883519E1,8.549659E1,7.12504E0,3.5054977E1,3.5396106E2,2.2079823E2,5.104505E1,1.4269747E1],"tree_param":{"num_deleted":"0","num_feature":"44","num_nodes":"15","size_leaf_vector":"1"}},{"base_weights":[7.363133E-2,-1.3394491E-1,2.7427885E-1,2.5464153E-1,-1.8688913E-1,4.170284E-1,9.119786E-2,1.7079117E-2,-2.8212052E-3,-1.4900624E-2,-1.8376531E-3,2.3681875E-2,-6.2115183E-3,-6.618587E-4,1.50565775E-2],"categories":[],"categories_nodes":[],"categories_segments":[],"categories_sizes":[],"default_left":[0,0,0,0,0,0,0,0,0,0,0,0,0,0,0],"id":65,"left_children":[1,3,5,7,9,11,13,-1,-1,-1,-1,-1,-1,-1,-1],"loss_changes":[4.0593662E1,9.860977E0,1.2339695E1,1.8585882E0,6.6831903E0,8.944973E0,5.21526E0,0E0,0E0,0E0,0E0,0E0,0E0,0E0,0E0],"parents":[2147483647,0,0,1,1,2,2,3,3,4,4,5,5,6,6],"right_children":[2,4,6,8,10,12,14,-1,-1,-1,-1,-1,-1,-1,-1],"split_conditions":[5E0,2E0,4E0,1E1,6E0,1.2E1,4.56E-1,1.7079117E-2,-2.8212052E-3,-1.4900624E-2,-1.8376531E-3,2.3681875E-2,-6.2115183E-3,-6.618587E-4,1.50565775E-2],"split_indices":[2,3,3,13,7,6,19,0,0,0,0,0,0,0,0],"split_type":[0,0,0,0,0,0,0,0,0,0,0,0,0,0,0],"sum_hessian":[9.6563E2,4.726608E2,4.929692E2,5.304175E1,4.1961905E2,2.7177148E2,2.2119771E2,4.3737774E1,9.303978E0,2.356138E2,1.8400526E2,2.4805074E2,2.3720753E1,1.4641069E2,7.4787025E1],"tree_param":{"num_deleted":"0","num_feature":"44","num_nodes":"15","size_leaf_vector":"1"}},{"base_weights":[-1.2006556E-2,-1.8768743E-1,2.3103286E-1,-3.691852E-2,-3.59392E-1,5.0124437E-1,1.0922297E-1,-2.0550946E-2,1.4523166E-3,5.2969307E-3,-1.912228E-2,-0E0,2.8210709E-2,2.3115193E-3,2.6335899E-2],"categories":[],"categories_nodes":[],"categories_segments":[],"categories_sizes":[],"default_left":[0,0,0,0,0,0,0,0,0,0,0,0,0,0,0],"id":66,"left_children":[1,3,5,7,9,11,13,-1,-1,-1,-1,-1,-1,-1,-1],"loss_changes":[3.761183E1,1.2874428E1,1.1327831E1,7.3328385E0,2.9399223E0,3.1946678E0,6.187347E0,0E0,0E0,0E0,0E0,0E0,0E0,0E0,0E0],"parents":[2147483647,0,0,1,1,2,2,3,3,4,4,5,5,6,6],"right_children":[2,4,6,8,10,12,14,-1,-1,-1,-1,-1,-1,-1,-1],"split_conditions":[5E0,5E0,3E0,2E0,-6E0,1.0769231E0,9E0,-2.0550946E-2,1.4523166E-3,5.2969307E-3,-1.912228E-2,-0E0,2.8210709E-2,2.3115193E-3,2.6335899E-2],"split_indices":[3,2,2,3,37,29,3,0,0,0,0,0,0,0,0],"split_type":[0,0,0,0,0,0,0,0,0,0,0,0,0,0,0],"sum_hessian":[8.758617E2,5.1116455E2,3.646971E2,2.7721707E2,2.3394748E2,1.07865074E2,2.5683206E2,4.1474358E1,2.3574272E2,8.486521E0,2.2546095E2,1.3330063E1,9.453501E1,2.2813757E2,2.8694473E1],"tree_param":{"num_deleted":"0","num_feature":"44","num_nodes":"15","size_leaf_vector":"1"}},{"base_weights":[-5.6351837E-2,-2.5925163E-2,-2.8629914E-1,-7.1214475E-2,9.551044E-2,-1.1332722E-1,-4.3600786E-1,3.633974E-3,-5.636509E-3,8.522309E-3,-8.533035E-3,1.5964812E-4,-1.4970443E-2,-2.4154712E-2,-1.6191887E-3],"categories":[],"categories_nodes":[],"categories_segments":[],"categories_sizes":[],"default_left":[0,0,0,0,0,0,0,0,0,0,0,0,0,0,0],"id":67,"left_children":[1,3,5,7,9,11,13,-1,-1,-1,-1,-1,-1,-1,-1],"loss_changes":[5.341482E0,3.9756804E0,1.6501589E0,3.2591648E0,3.9134617E0,1.366189E0,2.8230095E-1,0E0,0E0,0E0,0E0,0E0,0E0,0E0,0E0],"parents":[2147483647,0,0,1,1,2,2,3,3,4,4,5,5,6,6],"right_children":[2,4,6,8,10,12,14,-1,-1,-1,-1,-1,-1,-1,-1],"split_conditions":[6.864407E-1,1.3E1,7E0,2.5E-1,1.6E0,6E0,3.19E2,3.633974E-3,-5.636509E-3,8.522309E-3,-8.533035E-3,1.5964812E-4,-1.4970443E-2,-2.4154712E-2,-1.6191887E-3],"split_indices":[40,4,2,35,18,23,43,0,0,0,0,0,0,0,0],"split_type":[0,0,0,0,0,0,0,0,0,0,0,0,0,0,0],"sum_hessian":[8.082553E2,7.2059326E2,8.7662E1,5.317522E2,1.8884106E2,4.621558E1,4.144642E1,1.13168755E2,4.1858347E2,1.5112921E2,3.771185E1,2.6928247E1,1.9287334E1,3.4368767E1,7.077652E0],"tree_param":{"num_deleted":"0","num_feature":"44","num_nodes":"15","size_leaf_vector":"1"}},{"base_weights":[6.072387E-2,-1.1720389E-1,2.3648061E-1,1.3740982E-2,-2.8642243E-1,3.965619E-1,1.2130363E-1,9.418597E-3,-5.543614E-3,-1.6493902E-2,1.5008603E-2,2.3848757E-2,8.655228E-3,1.6227385E-3,1.5616439E-2],"categories":[],"categories_nodes":[],"categories_segments":[],"categories_sizes":[],"default_left":[0,0,0,0,0,0,0,0,0,0,0,0,0,0,0],"id":68,"left_children":[1,3,5,7,9,11,13,-1,-1,-1,-1,-1,-1,-1,-1],"loss_changes":[3.0106895E1,1.0795909E1,8.278091E0,5.9496527E0,5.6903973E0,2.6589756E0,4.545981E0,0E0,0E0,0E0,0E0,0E0,0E0,0E0,0E0],"parents":[2147483647,0,0,1,1,2,2,3,3,4,4,5,5,6,6],"right_children":[2,4,6,8,10,12,14,-1,-1,-1,-1,-1,-1,-1,-1],"split_conditions":[1.3513514E-2,5E0,3E0,5E0,1E0,9E0,6E0,9.418597E-3,-5.543614E-3,-1.6493902E-2,1.5008603E-2,2.3848757E-2,8.655228E-3,1.6227385E-3,1.5616439E-2],"split_indices":[40,3,3,6,11,6,7,0,0,0,0,0,0,0,0],"split_type":[0,0,0,0,0,0,0,0,0,0,0,0,0,0,0],"sum_hessian":[9.532698E2,4.7137842E2,4.8189136E2,2.6396423E2,2.074142E2,1.9493924E2,2.8695212E2,1.1262428E2,1.5133994E2,1.9591805E2,1.1496165E1,1.3755872E2,5.738052E1,2.0182478E2,8.512733E1],"tree_param":{"num_deleted":"0","num_feature":"44","num_nodes":"15","size_leaf_vector":"1"}},{"base_weights":[-1.5266653E-2,-2.4357335E-1,1.3818902E-1,5.9152648E-2,-3.2783592E-1,2.3857243E-1,-1.650174E-1,1.1654179E-2,-1.1987856E-2,-3.8915542E-3,-1.9659705E-2,3.6154103E-3,1.8124333E-2,5.1666456E-3,-1.1342435E-2],"categories":[],"categories_nodes":[],"categories_segments":[],"categories_sizes":[],"default_left":[0,0,0,0,0,0,0,0,0,0,0,0,0,0,0],"id":69,"left_children":[1,3,5,7,9,11,13,-1,-1,-1,-1,-1,-1,-1,-1],"loss_changes":[3.0505625E1,9.288952E0,1.5912066E1,4.1359706E0,3.9776955E0,7.557211E0,2.313701E0,0E0,0E0,0E0,0E0,0E0,0E0,0E0,0E0],"parents":[2147483647,0,0,1,1,2,2,3,3,4,4,5,5,6,6],"right_children":[2,4,6,8,10,12,14,-1,-1,-1,-1,-1,-1,-1,-1],"split_conditions":[4E0,3E0,6E0,1.4204545E0,1.0769231E0,1.4045801E0,-4E0,1.1654179E-2,-1.1987856E-2,-3.8915542E-3,-1.9659705E-2,3.6154103E-3,1.8124333E-2,5.1666456E-3,-1.1342435E-2],"split_indices":[3,2,2,27,17,26,36,0,0,0,0,0,0,0,0],"split_type":[0,0,0,0,0,0,0,0,0,0,0,0,0,0,0],"sum_hessian":[8.618295E2,3.4833783E2,5.134917E2,7.34574E1,2.7488043E2,3.88731E2,1.24760704E2,4.8969162E1,2.4488237E1,6.1501358E1,2.1337906E2,1.7147368E2,2.1725731E2,1.9957533E1,1.0480317E2],"tree_param":{"num_deleted":"0","num_feature":"44","num_nodes":"15","size_leaf_vector":"1"}},{"base_weights":[-5.5602815E-2,-2.094816E-1,-1.1902184E-2,-3.694228E-2,-2.9797482E-1,-6.115092E-2,1.0267295E-1,6.7666234E-3,-1.5036123E-2,-1.8608388E-2,-4.6073864E-3,2.485367E-3,-6.367169E-3,9.719711E-4,2.4926597E-2],"categories":[],"categories_nodes":[],"categories_segments":[],"categories_sizes":[],"default_left":[0,0,0,0,0,0,0,0,0,0,0,0,0,0,0],"id":70,"left_children":[1,3,5,7,9,11,13,-1,-1,-1,-1,-1,-1,-1,-1],"loss_changes":[5.208189E0,2.282516E0,3.57702E0,3.2914405E0,1.1200047E0,3.42916E0,5.607583E0,0E0,0E0,0E0,0E0,0E0,0E0,0E0,0E0],"parents":[2147483647,0,0,1,1,2,2,3,3,4,4,5,5,6,6],"right_children":[2,4,6,8,10,12,14,-1,-1,-1,-1,-1,-1,-1,-1],"split_conditions":[1E0,1.0833334E0,1.3E1,6E0,9E0,6.4E1,1.8181819E0,6.7666234E-3,-1.5036123E-2,-1.8608388E-2,-4.6073864E-3,2.485367E-3,-6.367169E-3,9.719711E-4,2.4926597E-2],"split_indices":[8,26,4,2,14,21,29,0,0,0,0,0,0,0,0],"split_type":[0,0,0,0,0,0,0,0,0,0,0,0,0,0,0],"sum_hessian":[8.0553186E2,1.7058917E2,6.349427E2,6.3104362E1,1.074848E2,4.5114865E2,1.8379405E2,3.676377E1,2.6340593E1,7.3652824E1,3.383198E1,1.6329837E2,2.8785028E2,1.5655103E2,2.7243029E1],"tree_param":{"num_deleted":"0","num_feature":"44","num_nodes":"15","size_leaf_vector":"1"}},{"base_weights":[6.0368698E-2,-4.659904E-2,3.9812037E-1,-3.1295797E-1,3.3101648E-2,1.2152989E-1,5.24641E-1,-1.9925607E-2,8.774208E-4,5.7272348E-3,-1.1509295E-2,1.6046287E-3,3.0786855E-2,2.8723864E-2,5.123231E-4],"categories":[],"categories_nodes":[],"categories_segments":[],"categories_sizes":[],"default_left":[0,0,0,0,0,0,0,0,0,0,0,0,0,0,0],"id":71,"left_children":[1,3,5,7,9,11,13,-1,-1,-1,-1,-1,-1,-1,-1],"loss_changes":[3.506487E1,1.5786642E1,7.3267174E0,5.2391396E0,1.1991226E1,2.8116317E0,3.414463E0,0E0,0E0,0E0,0E0,0E0,0E0,0E0,0E0],"parents":[2147483647,0,0,1,1,2,2,3,3,4,4,5,5,6,6],"right_children":[2,4,6,8,10,12,14,-1,-1,-1,-1,-1,-1,-1,-1],"split_conditions":[7E0,3E0,1.3529412E0,1.5283018E0,6E0,1E0,6E0,-1.9925607E-2,8.774208E-4,5.7272348E-3,-1.1509295E-2,1.6046287E-3,3.0786855E-2,2.8723864E-2,5.123231E-4],"split_indices":[2,2,17,27,3,11,3,0,0,0,0,0,0,0,0],"split_type":[0,0,0,0,0,0,0,0,0,0,0,0,0,0,0],"sum_hessian":[9.5628864E2,7.259893E2,2.3029932E2,1.6806953E2,5.579198E2,7.660856E1,1.5369075E2,1.3542268E2,3.2646843E1,4.303058E2,1.2761403E2,6.928773E1,7.3208346E0,1.3802408E2,1.5666683E1],"tree_param":{"num_deleted":"0","num_feature":"44","num_nodes":"15","size_leaf_vector":"1"}},{"base_weights":[-8.094888E-3,-2.4196404E-1,1.5203968E-1,-1.3266222E-1,-4.4085762E-1,4.2682472E-1,4.4322807E-2,5.085295E-3,-1.1115119E-2,-2.4017235E-2,-2.1120906E-3,2.4152225E-2,8.932943E-4,7.864444E-5,2.496363E-2],"categories":[],"categories_nodes":[],"categories_segments":[],"categories_sizes":[],"default_left":[0,0,0,0,0,0,0,0,0,0,0,0,0,0,0],"id":72,"left_children":[1,3,5,7,9,11,13,-1,-1,-1,-1,-1,-1,-1,-1],"loss_changes":[3.2256096E1,6.89415E0,1.4489783E1,5.113456E0,1.3077526E0,2.6901722E0,6.701745E0,0E0,0E0,0E0,0E0,0E0,0E0,0E0,0E0],"parents":[2147483647,0,0,1,1,2,2,3,3,4,4,5,5,6,6],"right_children":[2,4,6,8,10,12,14,-1,-1,-1,-1,-1,-1,-1,-1],"split_conditions":[4E0,3.9418378E-1,3E0,3E0,1.5E1,1.4E1,9E0,5.085295E-3,-1.1115119E-2,-2.4017235E-2,-2.1120906E-3,2.4152225E-2,8.932943E-4,7.864444E-5,2.496363E-2],"split_indices":[3,40,2,2,5,5,3,0,0,0,0,0,0,0,0],"split_type":[0,0,0,0,0,0,0,0,0,0,0,0,0,0,0],"sum_hessian":[8.5295056E2,3.485789E2,5.0437167E2,2.3142711E2,1.1715179E2,1.3691962E2,3.6745206E2,6.0828583E1,1.7059853E2,1.03750435E2,1.3401352E1,1.17744514E2,1.9175102E1,3.406508E2,2.6801256E1],"tree_param":{"num_deleted":"0","num_feature":"44","num_nodes":"15","size_leaf_vector":"1"}},{"base_weights":[-6.188209E-2,-2.341418E-1,-2.2608535E-2,-0E0,-3.7880674E-1,-4.9461402E-2,2.1285689E-1,7.906088E-3,-1.2073263E-2,-2.6696678E-3,-2.104982E-2,-8.551022E-4,-1.1337041E-2,1.6004922E-2,-6.730164E-3],"categories":[],"categories_nodes":[],"categories_segments":[],"categories_sizes":[],"default_left":[0,0,0,0,0,0,0,0,0,0,0,0,0,0,0],"id":73,"left_children":[1,3,5,7,9,11,13,-1,-1,-1,-1,-1,-1,-1,-1],"loss_changes":[5.1411266E0,4.7739453E0,4.0394607E0,2.364366E0,6.677427E-1,3.177451E0,2.7101893E0,0E0,0E0,0E0,0E0,0E0,0E0,0E0,0E0],"parents":[2147483647,0,0,1,1,2,2,3,3,4,4,5,5,6,6],"right_children":[2,4,6,8,10,12,14,-1,-1,-1,-1,-1,-1,-1,-1],"split_conditions":[1.0344827E0,5E0,2.1E1,1.5E0,1.0441177E0,7E0,1.6296296E0,7.906088E-3,-1.2073263E-2,-2.6696678E-3,-2.104982E-2,-8.551022E-4,-1.1337041E-2,1.6004922E-2,-6.730164E-3],"split_indices":[18,2,0,34,27,3,27,0,0,0,0,0,0,0,0],"split_type":[0,0,0,0,0,0,0,0,0,0,0,0,0,0,0],"sum_hessian":[7.972302E2,1.4052382E2,6.567064E2,5.5421085E1,8.510273E1,5.954204E2,6.1285988E1,3.3537834E1,2.1883251E1,1.326758E1,7.183515E1,5.1106445E2,8.435595E1,4.9211437E1,1.2074551E1],"tree_param":{"num_deleted":"0","num_feature":"44","num_nodes":"15","size_leaf_vector":"1"}},{"base_weights":[5.883792E-2,-7.784971E-2,3.1073797E-1,1.5168607E-1,-1.717284E-1,1.6333167E-1,4.551902E-1,1.2973937E-2,-1.0952874E-2,-1.455561E-2,-1.4021687E-3,1.7158227E-2,4.8706052E-4,9.923534E-3,2.6716461E-2],"categories":[],"categories_nodes":[],"categories_segments":[],"categories_sizes":[],"default_left":[0,0,0,0,0,0,0,0,0,0,0,0,0,0,0],"id":74,"left_children":[1,3,5,7,9,11,13,-1,-1,-1,-1,-1,-1,-1,-1],"loss_changes":[3.3029613E1,1.3370441E1,6.3445816E0,7.2959595E0,7.2320375E0,4.474544E0,2.3083038E0,0E0,0E0,0E0,0E0,0E0,0E0,0E0,0E0],"parents":[2147483647,0,0,1,1,2,2,3,3,4,4,5,5,6,6],"right_children":[2,4,6,8,10,12,14,-1,-1,-1,-1,-1,-1,-1,-1],"split_conditions":[6E0,3E0,2.8640777E-1,9E0,4E0,6E0,7E0,1.2973937E-2,-1.0952874E-2,-1.455561E-2,-1.4021687E-3,1.7158227E-2,4.8706052E-4,9.923534E-3,2.6716461E-2],"split_indices":[2,3,40,6,2,6,2,0,0,0,0,0,0,0,0],"split_type":[0,0,0,0,0,0,0,0,0,0,0,0,0,0,0],"sum_hessian":[9.4740985E2,6.129241E2,3.3448578E2,1.7428746E2,4.386366E2,1.7214015E2,1.6234564E2,1.3781558E2,3.647188E1,2.3409554E2,2.0454108E2,7.459096E1,9.7549194E1,4.3710983E1,1.1863466E2],"tree_param":{"num_deleted":"0","num_feature":"44","num_nodes":"15","size_leaf_vector":"1"}},{"base_weights":[6.829159E-4,-1.6342159E-1,2.2547257E-1,-4.5825976E-1,-9.419825E-2,2.9693362E-1,-1.2810128E-2,-5.5367495E-3,-2.4804955E-2,2.6024051E-3,-1.1554015E-2,8.6488E-3,2.3072405E-2,-6.0384525E-3,1.3180189E-2],"categories":[],"categories_nodes":[],"categories_segments":[],"categories_sizes":[],"default_left":[0,0,0,0,0,0,0,0,0,0,0,0,0,0,0],"id":75,"left_children":[1,3,5,7,9,11,13,-1,-1,-1,-1,-1,-1,-1,-1],"loss_changes":[3.1767744E1,9.405324E0,6.51503E0,4.1782188E-1,8.358388E0,4.9245644E0,2.4568062E0,0E0,0E0,0E0,0E0,0E0,0E0,0E0,0E0],"parents":[2147483647,0,0,1,1,2,2,3,3,4,4,5,5,6,6],"right_children":[2,4,6,8,10,12,14,-1,-1,-1,-1,-1,-1,-1,-1],"split_conditions":[5E0,2E0,5.0605845E-2,2.6E1,0E0,7E0,3E0,-5.5367495E-3,-2.4804955E-2,2.6024051E-3,-1.1554015E-2,8.6488E-3,2.3072405E-2,-6.0384525E-3,1.3180189E-2],"split_indices":[3,3,39,21,39,3,9,0,0,0,0,0,0,0,0],"split_type":[0,0,0,0,0,0,0,0,0,0,0,0,0,0,0],"sum_hessian":[8.534927E2,4.9124014E2,3.622525E2,8.745272E1,4.037874E2,2.8133755E2,8.0914955E1,1.2338662E1,7.511406E1,1.9258311E2,2.112043E2,1.6742197E2,1.1391558E2,6.200478E1,1.8910172E1],"tree_param":{"num_deleted":"0","num_feature":"44","num_nodes":"15","size_leaf_vector":"1"}},{"base_weights":[-5.0232496E-2,-7.303702E-3,-2.1493985E-1,9.199612E-2,-9.119868E-2,1.5774876E-2,-3.5799474E-1,2.2772625E-3,2.1884497E-2,-1.2080502E-2,-1.2216122E-3,5.474716E-3,-1.606621E-2,2.0466798E-3,-2.0714186E-2],"categories":[],"categories_nodes":[],"categories_segments":[],"categories_sizes":[],"default_left":[0,0,0,0,0,0,0,0,0,0,0,0,0,0,0],"id":76,"left_children":[1,3,5,7,9,11,13,-1,-1,-1,-1,-1,-1,-1,-1],"loss_changes":[5.3887215E0,5.3388605E0,5.6162844E0,4.084502E0,3.2587667E0,1.825972E0,2.6949444E0,0E0,0E0,0E0,0E0,0E0,0E0,0E0,0E0],"parents":[2147483647,0,0,1,1,2,2,3,3,4,4,5,5,6,6],"right_children":[2,4,6,8,10,12,14,-1,-1,-1,-1,-1,-1,-1,-1],"split_conditions":[7E0,4E0,7.29927E-3,2.1E1,3E0,1.1E1,2E0,2.2772625E-3,2.1884497E-2,-1.2080502E-2,-1.2216122E-3,5.474716E-3,-1.606621E-2,2.0466798E-3,-2.0714186E-2],"split_indices":[2,3,39,0,2,22,42,0,0,0,0,0,0,0,0],"split_type":[0,0,0,0,0,0,0,0,0,0,0,0,0,0,0],"sum_hessian":[7.9121906E2,6.349358E2,1.5628322E2,2.851807E2,3.497551E2,5.8161285E1,9.812194E1,2.5694324E2,2.8237473E1,1.0050462E2,2.4925049E2,4.9415077E1,8.746208E0,1.0037514E1,8.808443E1],"tree_param":{"num_deleted":"0","num_feature":"44","num_nodes":"15","size_leaf_vector":"1"}},{"base_weights":[5.6689225E-2,-6.48697E-2,3.0415604E-1,2.4303645E-2,-3.117892E-1,1.7299876E-1,4.4971275E-1,-3.2200762E-3,1.0147395E-2,-1.9052725E-2,-6.9765974E-4,1.6420994E-2,2.2244484E-3,2.5388286E-2,8.131932E-3],"categories":[],"categories_nodes":[],"categories_segments":[],"categories_sizes":[],"default_left":[0,0,0,0,0,0,0,0,0,0,0,0,0,0,0],"id":77,"left_children":[1,3,5,7,9,11,13,-1,-1,-1,-1,-1,-1,-1,-1],"loss_changes":[2.8771397E1,1.428087E1,5.1579647E0,7.5615745E0,3.127819E0,3.0625415E0,1.4787884E0,0E0,0E0,0E0,0E0,0E0,0E0,0E0,0E0],"parents":[2147483647,0,0,1,1,2,2,3,3,4,4,5,5,6,6],"right_children":[2,4,6,8,10,12,14,-1,-1,-1,-1,-1,-1,-1,-1],"split_conditions":[9.69435E-2,6E0,1.7204969E0,6E0,9E0,3E0,3E0,-3.2200762E-3,1.0147395E-2,-1.9052725E-2,-6.9765974E-4,1.6420994E-2,2.2244484E-3,2.5388286E-2,8.131932E-3],"split_indices":[39,3,17,7,7,3,9,0,0,0,0,0,0,0,0],"split_type":[0,0,0,0,0,0,0,0,0,0,0,0,0,0,0],"sum_hessian":[9.435165E2,6.31492E2,3.1202448E2,4.6295404E2,1.6853796E2,1.7119818E2,1.4082631E2,3.0688977E2,1.5606425E2,1.3333383E2,3.5204136E1,7.185168E1,9.93465E1,1.12322426E2,2.850388E1],"tree_param":{"num_deleted":"0","num_feature":"44","num_nodes":"15","size_leaf_vector":"1"}},{"base_weights":[-1.8329307E-2,-2.2628437E-1,1.19668014E-1,-8.090189E-2,-3.8052195E-1,3.7230572E-1,2.2639107E-2,-1.9384244E-2,-0E0,7.8755645E-3,-2.0713234E-2,2.1280712E-2,-0E0,1.2030612E-2,-2.9557303E-3],"categories":[],"categories_nodes":[],"categories_segments":[],"categories_sizes":[],"default_left":[0,0,0,0,0,0,0,0,0,0,0,0,0,0,0],"id":78,"left_children":[1,3,5,7,9,11,13,-1,-1,-1,-1,-1,-1,-1,-1],"loss_changes":[2.4676285E1,7.166994E0,1.2131008E1,4.575065E0,3.410324E0,2.9005089E0,6.9244256E0,0E0,0E0,0E0,0E0,0E0,0E0,0E0,0E0],"parents":[2147483647,0,0,1,1,2,2,3,3,4,4,5,5,6,6],"right_children":[2,4,6,8,10,12,14,-1,-1,-1,-1,-1,-1,-1,-1],"split_conditions":[4E0,5E0,3E0,2E0,2E0,2E0,-4.7478992E-1,-1.9384244E-2,-0E0,7.8755645E-3,-2.0713234E-2,2.1280712E-2,-0E0,1.2030612E-2,-2.9557303E-3],"split_indices":[3,2,2,3,13,34,40,0,0,0,0,0,0,0,0],"split_type":[0,0,0,0,0,0,0,0,0,0,0,0,0,0,0],"sum_hessian":[8.5033746E2,3.4131702E2,5.0902045E2,1.8139417E2,1.5992284E2,1.3602634E2,3.729941E2,3.546948E1,1.4592468E2,7.0393376E0,1.528835E2,1.1939289E2,1.6633446E1,1.0348448E2,2.695096E2],"tree_param":{"num_deleted":"0","num_feature":"44","num_nodes":"15","size_leaf_vector":"1"}},{"base_weights":[-5.5260498E-2,-2.8696055E-2,-3.9158446E-1,-5.7763178E-2,1.9593672E-1,-2.1835623E-2,-0E0,-3.9385594E-4,-8.339284E-3,1.5319777E-2,-6.472502E-3],"categories":[],"categories_nodes":[],"categories_segments":[],"categories_sizes":[],"default_left":[0,0,0,0,0,0,0,0,0,0,0],"id":79,"left_children":[1,3,5,7,9,-1,-1,-1,-1,-1,-1],"loss_changes":[6.686618E0,4.771471E0,6.634922E-1,3.4513469E0,3.2537985E0,0E0,0E0,0E0,0E0,0E0,0E0],"parents":[2147483647,0,0,1,1,2,2,3,3,4,4],"right_children":[2,4,6,8,10,-1,-1,-1,-1,-1,-1],"split_conditions":[8.4444445E-1,2.1E1,1.5E1,2.64E2,1E1,-2.1835623E-2,-0E0,-3.9385594E-4,-8.339284E-3,1.5319777E-2,-6.472502E-3],"split_indices":[40,0,14,43,2,0,0,0,0,0,0],"split_type":[0,0,0,0,0,0,0,0,0,0,0],"sum_hessian":[7.962391E2,7.4372546E2,5.2513634E1,6.644296E2,7.929585E1,4.5112263E1,7.401373E0,4.6434552E2,2.000841E2,6.162457E1,1.7671286E1],"tree_param":{"num_deleted":"0","num_feature":"44","num_nodes":"11","size_leaf_vector":"1"}},{"base_weights":[5.493478E-2,-3.9257847E-2,3.5947415E-1,-2.7849293E-1,3.4062725E-2,1.0214948E-1,4.682745E-1,-1.7261628E-2,-0E0,1.7920747E-2,-7.795999E-4,-0E0,2.8150577E-2,2.6737047E-2,7.3197315E-4],"categories":[],"categories_nodes":[],"categories_segments":[],"categories_sizes":[],"default_left":[0,0,0,0,0,0,0,0,0,0,0,0,0,0,0],"id":80,"left_children":[1,3,5,7,9,11,13,-1,-1,-1,-1,-1,-1,-1,-1],"loss_changes":[2.7370022E1,1.2889867E1,5.591444E0,3.5275803E0,9.218169E0,2.956547E0,4.0921974E0,0E0,0E0,0E0,0E0,0E0,0E0,0E0,0E0],"parents":[2147483647,0,0,1,1,2,2,3,3,4,4,5,5,6,6],"right_children":[2,4,6,8,10,12,14,-1,-1,-1,-1,-1,-1,-1,-1],"split_conditions":[7E0,3E0,1.340136E0,1.5283018E0,2E0,1E0,1.1E1,-1.7261628E-2,-0E0,1.7920747E-2,-7.795999E-4,-0E0,2.8150577E-2,2.6737047E-2,7.3197315E-4],"split_indices":[2,2,17,27,3,11,6,0,0,0,0,0,0,0,0],"split_type":[0,0,0,0,0,0,0,0,0,0,0,0,0,0,0],"sum_hessian":[9.385069E2,7.16291E2,2.2221588E2,1.6926059E2,5.4703046E2,7.049509E1,1.517208E2,1.3869354E2,3.0567034E1,7.282315E1,4.7420728E2,6.1748573E1,8.7465105E0,1.299411E2,2.1779697E1],"tree_param":{"num_deleted":"0","num_feature":"44","num_nodes":"15","size_leaf_vector":"1"}},{"base_weights":[-6.060954E-3,-2.1880242E-1,1.3465285E-1,2.9203922E-2,-2.9816183E-1,3.9860794E-1,3.4590974E-2,9.388063E-3,-1.3561989E-2,-8.106386E-3,-2.0091547E-2,-1.227398E-4,2.1533914E-2,-1.7641766E-3,1.2660913E-2],"categories":[],"categories_nodes":[],"categories_segments":[],"categories_sizes":[],"default_left":[0,0,0,0,0,0,0,0,0,0,0,0,0,0,0],"id":81,"left_children":[1,3,5,7,9,11,13,-1,-1,-1,-1,-1,-1,-1,-1],"loss_changes":[2.5592669E1,7.0267925E0,1.29988785E1,4.003788E0,2.941639E0,2.196003E0,5.9877076E0,0E0,0E0,0E0,0E0,0E0,0E0,0E0,0E0],"parents":[2147483647,0,0,1,1,2,2,3,3,4,4,5,5,6,6],"right_children":[2,4,6,8,10,12,14,-1,-1,-1,-1,-1,-1,-1,-1],"split_conditions":[4E0,3E0,3E0,1.4659091E0,1.2952489E-1,9.382716E-1,7E0,9.388063E-3,-1.3561989E-2,-8.106386E-3,-2.0091547E-2,-1.227398E-4,2.1533914E-2,-1.7641766E-3,1.2660913E-2],"split_indices":[3,2,2,27,40,29,3,0,0,0,0,0,0,0,0],"split_type":[0,0,0,0,0,0,0,0,0,0,0,0,0,0,0],"sum_hessian":[8.461589E2,3.390301E2,5.071288E2,7.9592E1,2.5943808E2,1.3419325E2,3.7293555E2,5.501287E1,2.4579138E1,1.1970261E2,1.3973547E2,7.8324E0,1.26360855E2,2.810517E2,9.188386E1],"tree_param":{"num_deleted":"0","num_feature":"44","num_nodes":"15","size_leaf_vector":"1"}},{"base_weights":[-4.091699E-2,-2.3810832E-2,-3.4237406E-1,-5.2371845E-2,2.1556094E-1,-2.1294901E-2,-2.559886E-3,-8.656627E-3,-9.49282E-4,1.8112073E-2,-0E0],"categories":[],"categories_nodes":[],"categories_segments":[],"categories_sizes":[],"default_left":[0,0,0,0,0,0,0,0,0,0,0],"id":82,"left_children":[1,3,5,7,9,-1,-1,-1,-1,-1,-1],"loss_changes":[3.752813E0,5.1124797E0,4.2501497E-1,2.584481E0,2.7162173E0,0E0,0E0,0E0,0E0,0E0,0E0],"parents":[2147483647,0,0,1,1,2,2,3,3,4,4],"right_children":[2,4,6,8,10,-1,-1,-1,-1,-1,-1],"split_conditions":[1E1,2.1E1,1E1,1E0,4.6078432E-1,-2.1294901E-2,-2.559886E-3,-8.656627E-3,-9.49282E-4,1.8112073E-2,-0E0],"split_indices":[2,0,1,8,40,0,0,0,0,0,0],"split_type":[0,0,0,0,0,0,0,0,0,0,0],"sum_hessian":[8.0049774E2,7.6371497E2,3.6782772E1,6.881308E2,7.558415E1,2.4836134E1,1.1946637E1,1.398331E2,5.4829767E2,4.5527702E1,3.0056454E1],"tree_param":{"num_deleted":"0","num_feature":"44","num_nodes":"11","size_leaf_vector":"1"}},{"base_weights":[2.8847205E-2,-9.654243E-2,2.6699322E-1,-3.158193E-1,-1.126401E-2,4.0048626E-1,7.663647E-2,-1.7704306E-2,6.594936E-3,-3.89484E-3,1.320856E-2,2.2010947E-2,-6.426909E-3,-6.9126487E-3,9.290623E-3],"categories":[],"categories_nodes":[],"categories_segments":[],"categories_sizes":[],"default_left":[0,0,0,0,0,0,0,0,0,0,0,0,0,0,0],"id":83,"left_children":[1,3,5,7,9,11,13,-1,-1,-1,-1,-1,-1,-1,-1],"loss_changes":[2.8586262E1,1.1277191E1,7.838835E0,3.2839298E0,8.200478E0,4.4896564E0,3.4839215E0,0E0,0E0,0E0,0E0,0E0,0E0,0E0,0E0],"parents":[2147483647,0,0,1,1,2,2,3,3,4,4,5,5,6,6],"right_children":[2,4,6,8,10,12,14,-1,-1,-1,-1,-1,-1,-1,-1],"split_conditions":[6E0,3E0,4E0,1.8571428E0,5.081967E-1,1.3E1,6E0,-1.7704306E-2,6.594936E-3,-3.89484E-3,1.320856E-2,2.2010947E-2,-6.426909E-3,-6.9126487E-3,9.290623E-3],"split_indices":[2,2,3,27,19,6,24,0,0,0,0,0,0,0,0],"split_type":[0,0,0,0,0,0,0,0,0,0,0,0,0,0,0],"sum_hessian":[9.460118E2,6.18134E2,3.2787778E2,1.6752908E2,4.506049E2,1.8768999E2,1.4018779E2,1.5697339E2,1.05557E1,3.6748563E2,8.311928E1,1.7680482E2,1.0885159E1,4.387357E1,9.6314224E1],"tree_param":{"num_deleted":"0","num_feature":"44","num_nodes":"15","size_leaf_vector":"1"}},{"base_weights":[-3.7371132E-3,-2.1459089E-1,1.3509868E-1,-2.7744902E-2,-3.245809E-1,2.234E-1,-1.4140578E-1,-1.7867582E-2,2.2990608E-3,1.4815393E-2,-1.7959397E-2,1.6829154E-2,4.8594372E-3,-1.7142173E-2,-0E0],"categories":[],"categories_nodes":[],"categories_segments":[],"categories_sizes":[],"default_left":[0,0,0,0,0,0,0,0,0,0,0,0,0,0,0],